tree
version=v4
num_class=3
num_tree_per_iteration=3
label_index=0
max_feature_idx=3
objective=multiclass num_class:3
feature_names=Column_0 Column_1 Column_2 Column_3
feature_infos=[4.2999999999999998:7.7000000000000002] [2:4.4000000000000004] [1:6.7000000000000002] [0.10000000000000001:2.5]
tree_sizes=548 531 546 668 561 667 672 560 666 672 547 666 675 562 663 673 543 664 671 544 668 671 561 671 671 562 669 673 545 667 670 545 667 672 561 667 672 543 667 670 561 671 674 544 669 674 559 668 674 544 652 673 559 674 673 544 668 671 563 675 669 546 650 670 561 672 674 543 673 672 560 674 672 545 671 673 557 675 668 544 671 673 562 670 671 545 675 668 561 672 656 543 669 673 560 667 670 543 670 672 561 672 670 564 666 659 548 776 675 563 774 670 562 774 675 561 665 655 663 668 672 660 665 672 662 666 660 664 671 671 547 666 672 665 679 673 663 666 671 668 666 670 669 667 672 668 668 663 665 678 673 666 562 664 670 672 781 670 567 670 768 564 663 670 672 671 667 568 680 664 566 661 670 776 677 667 569 663 667 683 785 670 568 785 670 569 661 669 567 679 671 566 667 670 569 789 671 567 682 670 672 670 670 673 682 667 673 679 667 881 668 670 670 680 668 565 666 671 567 682 671 674 670 565 671 683 562 672 684 674 776 681 565 784 680 567 673 683 672 784 682 775 888 667 673 994 684 879 887 667 876 885 683 653 779 684 672 773 667 654 888 679 773 772 668 653 784 683 664 775 683 569 781 682 773 777 683 674 783 665 568 567 670 569 775 683 678 571 667 674 673 683 672 568 683 672 677 667 777 570

Tree=0
num_leaves=4
num_cat=0
split_feature=2 2 0
split_gain=77.0732 0.0768293 3.55271e-15
threshold=3.1500000000000004 1.4500000000000002 6.1500000000000012
decision_type=2 2 2
left_child=1 -1 -2
right_child=2 -3 -4
leaf_value=-0.99861228866810969 -1.1486122886681098 -1.0061122886681098 -1.1486122886681098
leaf_weight=7.0000002086162549 12.333333700895311 6.6666668653488159 14.000000417232512
leaf_count=21 37 20 42
internal_value=-1.09861 -1.00227 -1.14861
internal_weight=40 13.6667 26.3333
internal_count=120 41 79
is_linear=0
shrinkage=1


Tree=1
num_leaves=4
num_cat=0
split_feature=2 3 3
split_gain=19.2405 39.74 0.47422
threshold=1.8 1.6500000000000001 1.3500000000000003
decision_type=2 2 2
left_child=-1 2 -2
right_child=1 -3 -4
leaf_value=-1.1245525857370777 -0.98821421109130481 -1.1165421054406162 -1.0059974773494491
leaf_weight=12.821042180061339 8.4348961710929888 12.483646333217619 6.7479169368743888
leaf_count=38 25 37 20
internal_value=-1.07392 -1.05046 -0.996118
internal_weight=40.4875 27.6665 15.1828
internal_count=120 82 45
is_linear=0
shrinkage=1


Tree=2
num_leaves=4
num_cat=0
split_feature=2 2 1
split_gain=63.5727 2.03185 0.105245
threshold=4.7500000000000009 5.3500000000000005 2.8500000000000001
decision_type=2 2 2
left_child=2 -2 -1
right_child=1 -3 -4
leaf_value=-1.1660772491681204 -1.0593526952927117 -1.0213659896760408 -1.1733128121427243
leaf_weight=6.910312324762347 6.5812498331069929 7.5684373080730438 18.427499532699585
leaf_count=21 20 23 56
internal_value=-1.12393 -1.03903 -1.17134
internal_weight=39.4875 14.1497 25.3378
internal_count=120 43 77
is_linear=0
shrinkage=1


Tree=3
num_leaves=5
num_cat=0
split_feature=2 2 2 3
split_gain=68.3358 0.0536737 0.000117798 4.244e-05
threshold=3.1500000000000004 1.4500000000000002 4.8500000000000005 1.9500000000000002
decision_type=2 2 2 2
left_child=1 -1 -2 -4
right_child=2 -3 3 -5
leaf_value=0.090722198216431071 -0.048907414427517046 0.084584625081475115 -0.048602387442954219 -0.04878339265318879
leaf_weight=7.3213262557983381 12.69582059979439 6.9374661445617676 6.4618471264839155 6.491893082857132
leaf_count=21 39 20 20 20
internal_value=-1.67319e-05 0.087736 -0.0487992 -0.0486931
internal_weight=39.9084 14.2588 25.6496 12.9537
internal_count=120 41 79 40
is_linear=0
shrinkage=0.05


Tree=4
num_leaves=4
num_cat=0
split_feature=3 3 3
split_gain=17.7678 35.3587 0.411719
threshold=0.45000000000000007 1.6500000000000001 1.3500000000000003
decision_type=2 2 2
left_child=-1 2 -2
right_child=1 -3 -4
leaf_value=-0.049464585701201935 0.079252858782249358 -0.041443597116366297 0.062928149597167665
leaf_weight=12.520874232053755 8.7117629945278185 12.235390812158583 6.9385008811950675
leaf_count=38 25 37 20
internal_value=1.58559e-05 0.022233 0.0720153
internal_weight=40.4065 27.8857 15.6503
internal_count=120 82 45
is_linear=0
shrinkage=0.05


Tree=5
num_leaves=5
num_cat=0
split_feature=2 2 1 0
split_gain=56.634 1.68025 0.102762 4.87998e-05
threshold=4.7500000000000009 5.3500000000000005 2.8500000000000001 5.2500000000000009
decision_type=2 2 2 2
left_child=2 -2 -1 -4
right_child=1 -3 3 -5
leaf_value=-0.041013313115706058 0.059402196055054805 0.093294256684540819 -0.048174839662783103 -0.048340692379827965
leaf_weight=6.7545314431190517 6.7923571169376356 7.9221284985542297 9.9110101759433764 8.0275221168994886
leaf_count=21 20 23 31 25
internal_value=6.85209e-07 0.0776493 -0.0462698 -0.0482491
internal_weight=39.4075 14.7145 24.6931 17.9385
internal_count=120 43 77 56
is_linear=0
shrinkage=0.05


Tree=6
num_leaves=5
num_cat=0
split_feature=2 2 2 3
split_gain=61.0416 0.0397868 0.000357598 7.98985e-05
threshold=3.1500000000000004 1.4500000000000002 5.3500000000000005 1.3500000000000003
decision_type=2 2 2 2
left_child=1 -1 3 -2
right_child=2 -3 -4 -5
leaf_value=0.083254710887655778 -0.047694665347933193 0.0780519804848296 -0.047409096014117108 -0.047912104040542657
leaf_weight=7.5623725652694684 6.9445839524269166 7.1479074060916901 7.1991172432899466 10.787353217601774
leaf_count=21 22 20 23 34
internal_value=-4.68341e-05 0.0807266 -0.0477063 -0.0478269
internal_weight=39.6413 14.7103 24.9311 17.7319
internal_count=120 41 79 56
is_linear=0
shrinkage=0.05


Tree=7
num_leaves=4
num_cat=0
split_feature=3 3 3
split_gain=16.2948 31.4698 0.340751
threshold=0.45000000000000007 1.6500000000000001 1.3500000000000003
decision_type=2 2 2
left_child=-1 2 -2
right_child=1 -3 -4
leaf_value=-0.048262236509404782 0.073295301979096547 -0.040315475174778653 0.058622195137904599
leaf_weight=12.171609580516813 8.9501266479492241 11.972473561763762 7.091900259256362
leaf_count=38 25 37 20
internal_value=4.08085e-05 0.0210273 0.0668086
internal_weight=40.1861 28.0145 16.042
internal_count=120 82 45
is_linear=0
shrinkage=0.05


Tree=8
num_leaves=5
num_cat=0
split_feature=2 2 1 0
split_gain=50.7514 1.43657 0.10104 0.000150458
threshold=4.7500000000000009 5.3500000000000005 2.8500000000000001 5.2500000000000009
decision_type=2 2 2 2
left_child=2 -2 -1 -4
right_child=1 -3 3 -5
leaf_value=-0.039935201583493556 0.054939700748168077 0.085822942585025833 -0.047070318468923386 -0.047365718743059566
leaf_weight=6.5912804007530239 6.9671577215194693 8.1940135061740857 9.6084342896938342 7.817787528038024
leaf_count=21 20 23 31 25
internal_value=5.52883e-06 0.0716309 -0.0452083 -0.0472028
internal_weight=39.1787 15.1612 24.0175 17.4262
internal_count=120 43 77 56
is_linear=0
shrinkage=0.05


Tree=9
num_leaves=5
num_cat=0
split_feature=2 2 2 3
split_gain=54.8684 0.0308152 0.000657407 0.000176575
threshold=3.1500000000000004 1.4500000000000002 5.3500000000000005 1.3500000000000003
decision_type=2 2 2 2
left_child=1 -1 3 -2
right_child=2 -3 -4 -5
leaf_value=0.077134596726402382 -0.046675459527568575 0.072604910800181208 -0.046299221916815798 -0.0470034398683528
leaf_weight=7.7299574613571149 6.7365453839302125 7.3008805215358734 6.9504761695861808 10.499785989522932
leaf_count=21 22 20 23 34
internal_value=-8.75147e-05 0.0749344 -0.0467097 -0.0468753
internal_weight=39.2176 15.0308 24.1868 17.2363
internal_count=120 41 79 56
is_linear=0
shrinkage=0.05


Tree=10
num_leaves=4
num_cat=0
split_feature=2 3 3
split_gain=15.0864 28.2611 0.309866
threshold=1.8 1.6500000000000001 1.3500000000000003
decision_type=2 2 2
left_child=-1 2 -2
right_child=1 -3 -4
leaf_value=-0.047271176123118902 0.068744635754315664 -0.039235737880197234 0.054867419799789735
leaf_weight=11.829652488231657 9.0975839495658928 11.697349846363066 7.2111193537712088
leaf_count=38 25 37 20
internal_value=7.30468e-05 0.0200711 0.0626086
internal_weight=39.8357 28.0061 16.3087
internal_count=120 82 45
is_linear=0
shrinkage=0.05


Tree=11
num_leaves=5
num_cat=0
split_feature=2 2 1 0
split_gain=45.6977 1.2641 0.0999456 0.000261878
threshold=4.7500000000000009 5.3500000000000005 2.8500000000000001 5.2500000000000009
decision_type=2 2 2 2
left_child=2 -2 -1 -4
right_child=1 -3 3 -5
leaf_value=-0.038910134535471118 0.051038989883027852 0.079695082378390278 -0.046059746390153561 -0.04645546257000132
leaf_weight=6.422641038894656 7.1088352501392356 8.3911022543907148 9.2944828569889086 7.5992735922336569
leaf_count=21 20 23 31 25
internal_value=1.3454e-05 0.0665524 -0.0442193 -0.0462378
internal_weight=38.8163 15.4999 23.3164 16.8938
internal_count=120 43 77 56
is_linear=0
shrinkage=0.05


Tree=12
num_leaves=5
num_cat=0
split_feature=2 2 2 3
split_gain=49.5665 0.0251132 0.000960674 0.000305578
threshold=3.1500000000000004 1.4500000000000002 5.3500000000000005 1.3500000000000003
decision_type=2 2 2 2
left_child=1 -1 3 -2
right_child=2 -3 -4 -5
leaf_value=0.072039231399206177 -0.045732749249429848 0.067977539506003923 -0.045291386082679332 -0.046170923760713328
leaf_weight=7.8311845362186414 6.5212945342063966 7.4033975005149841 6.6955403685569754 10.206289350986479
leaf_count=21 22 20 23 34
internal_value=-0.000137193 0.0700654 -0.0457975 -0.0460001
internal_weight=38.6577 15.2346 23.4231 16.7276
internal_count=120 41 79 56
is_linear=0
shrinkage=0.05


Tree=13
num_leaves=4
num_cat=0
split_feature=3 2 3
split_gain=13.8799 25.5511 0.291997
threshold=0.45000000000000007 4.9500000000000011 1.3500000000000003
decision_type=2 2 2
left_child=-1 2 -2
right_child=1 -3 -4
leaf_value=-0.046248896730198524 0.064430334292562966 -0.039000460088882111 0.051111022597332571
leaf_weight=11.450018286705015 9.2117871940136009 11.274372458457945 7.4368881881237021
leaf_count=38 25 36 21
internal_value=0.000110966 0.0191211 0.0584807
internal_weight=39.3731 27.923 16.6487
internal_count=120 82 46
is_linear=0
shrinkage=0.05


Tree=14
num_leaves=5
num_cat=0
split_feature=2 2 1 0
split_gain=41.31 1.13908 0.0994723 0.000364014
threshold=4.7500000000000009 5.3500000000000005 2.8500000000000001 5.2500000000000009
decision_type=2 2 2 2
left_child=2 -2 -1 -4
right_child=1 -3 3 -5
leaf_value=-0.03792921658238374 0.047599298527456986 0.074592502160207227 -0.04513187387235168 -0.045606039124679622
leaf_weight=6.2494494616985348 7.2199132442474356 8.5206461548805219 8.973432272672655 7.3735868334770194
leaf_count=21 20 23 31 25
internal_value=2.43758e-05 0.0622112 -0.0432946 -0.0453458
internal_weight=38.337 15.7406 22.5965 16.347
internal_count=120 43 77 56
is_linear=0
shrinkage=0.05


Tree=15
num_leaves=5
num_cat=0
split_feature=2 2 2 3
split_gain=44.9631 0.0212243 0.00105786 0.000365231
threshold=3.1500000000000004 1.4500000000000002 5.3500000000000005 1.3500000000000003
decision_type=2 2 2 2
left_child=1 -1 3 -2
right_child=2 -3 -4 -5
leaf_value=0.067744830357689509 -0.044863844670962924 0.064022814209370213 -0.044404248531176027 -0.045350808687556754
leaf_weight=7.8729780316352826 6.3014484047889772 7.4588229358196259 6.4496788978576651 9.8995481431484205
leaf_count=21 22 20 23 34
internal_value=-0.000188626 0.0659341 -0.0449458 -0.0451614
internal_weight=37.9825 15.3318 22.6507 16.201
internal_count=120 41 79 56
is_linear=0
shrinkage=0.05


Tree=16
num_leaves=4
num_cat=0
split_feature=2 3 3
split_gain=12.886 23.3628 0.215936
threshold=1.8 1.6500000000000001 1.3500000000000003
decision_type=2 2 2
left_child=-1 2 -2
right_child=1 -3 -4
leaf_value=-0.045420287176336088 0.061126299839287246 -0.037487369454288495 0.049631444946433581
leaf_weight=11.083915472030638 9.2476691007614189 11.181965261697767 7.3192869424819937
leaf_count=38 25 37 20
internal_value=0.00015259 0.018356 0.0560479
internal_weight=38.8328 27.7489 16.567
internal_count=120 82 45
is_linear=0
shrinkage=0.05


Tree=17
num_leaves=5
num_cat=0
split_feature=2 2 1 0
split_gain=37.41 1.02176 0.100811 0.000450656
threshold=4.7500000000000009 5.3500000000000005 2.8500000000000001 5.2500000000000009
decision_type=2 2 2 2
left_child=2 -2 -1 -4
right_child=1 -3 3 -5
leaf_value=-0.036939934539933654 0.04463058946327559 0.070061620012311518 -0.044279592786798161 -0.044816269754867064
leaf_weight=6.0682675242424038 7.3067328929901114 8.5966382622718793 8.6467054188251478 7.1430579125881186
leaf_count=21 20 23 31 25
internal_value=3.2811e-05 0.0583774 -0.0424173 -0.0445224
internal_weight=37.7614 15.9034 21.858 15.7898
internal_count=120 43 77 56
is_linear=0
shrinkage=0.05


Tree=18
num_leaves=5
num_cat=0
split_feature=2 2 2 3
split_gain=40.9397 0.0187348 0.00129589 0.000509809
threshold=3.1500000000000004 1.4500000000000002 5.3500000000000005 1.3500000000000003
decision_type=2 2 2 2
left_child=1 -1 3 -2
right_child=2 -3 -4 -5
leaf_value=0.064084427567825494 -0.044059309091559896 0.060588134910949748 -0.043563201636524052 -0.044644510586650622
leaf_weight=7.8621687889099103 6.0777619481086758 7.473834365606308 6.189264088869094 9.6003072261810285
leaf_count=21 22 20 23 34
internal_value=-0.000251023 0.0623805 -0.0441758 -0.0444177
internal_weight=37.2033 15.336 21.8673 15.6781
internal_count=120 41 79 56
is_linear=0
shrinkage=0.05


Tree=19
num_leaves=4
num_cat=0
split_feature=2 2 3
split_gain=11.8827 21.1143 0.22658
threshold=1.8 4.9500000000000011 1.3500000000000003
decision_type=2 2 2
left_child=-1 2 -2
right_child=1 -3 -4
leaf_value=-0.044545254385886579 0.057859938361932664 -0.037190414833061868 0.046172839214187425
leaf_weight=10.686376035213469 9.2611831724643761 10.7294824719429 7.5101773142814627
leaf_count=38 25 36 21
internal_value=0.000197879 0.0175843 0.0526265
internal_weight=38.1872 27.5008 16.7714
internal_count=120 82 46
is_linear=0
shrinkage=0.05


Tree=20
num_leaves=5
num_cat=0
split_feature=2 2 1 0
split_gain=34.016 0.956966 0.101355 0.000508707
threshold=4.7500000000000009 5.3500000000000005 2.8500000000000001 5.2500000000000009
decision_type=2 2 2 2
left_child=2 -2 -1 -4
right_child=1 -3 3 -5
leaf_value=-0.036034241870659553 0.041861061613550264 0.066407993304654522 -0.043494907340770411 -0.044075441663380295
leaf_weight=5.8902960866689709 7.3677413165569297 8.6108643710613233 8.3177217245101911 6.907210260629653
leaf_count=21 20 23 31 25
internal_value=4.80528e-05 0.0550894 -0.0416036 -0.0437583
internal_weight=37.0938 15.9786 21.1152 15.2249
internal_count=120 43 77 56
is_linear=0
shrinkage=0.05


Tree=21
num_leaves=5
num_cat=0
split_feature=2 2 2 3
split_gain=37.3877 0.0170082 0.00134703 0.000570606
threshold=3.1500000000000004 1.4500000000000002 5.3500000000000005 1.3500000000000003
decision_type=2 2 2 2
left_child=1 -1 3 -2
right_child=2 -3 -4 -5
leaf_value=0.060937147919303471 -0.043317037635625694 0.057597410588460955 -0.042815310945415921 -0.043947326301760299
leaf_weight=7.8053131401538831 5.8526670336723354 7.4516522884368896 5.9397733211517325 9.2916896343231183
leaf_count=21 22 20 23 34
internal_value=-0.00031229 0.059306 -0.0434535 -0.0437037
internal_weight=36.3411 15.257 21.0841 15.1444
internal_count=120 41 79 56
is_linear=0
shrinkage=0.05


Tree=22
num_leaves=4
num_cat=0
split_feature=3 3 3
split_gain=11.0574 19.5452 0.160508
threshold=0.45000000000000007 1.6500000000000001 1.3500000000000003
decision_type=2 2 2
left_child=-1 2 -2
right_child=1 -3 -4
leaf_value=-0.043849119776831626 0.05537437487759575 -0.035893118051929566 0.045458658238236527
leaf_weight=10.307958215475081 9.2082109451293999 10.64023646712303 7.3298939466476432
leaf_count=38 25 37 20
internal_value=0.000245421 0.0169692 0.0509796
internal_weight=37.4863 27.1783 16.5381
internal_count=120 82 45
is_linear=0
shrinkage=0.05


Tree=23
num_leaves=5
num_cat=0
split_feature=3 3 2 2
split_gain=30.9948 1.21561 0.000843272 2.12267e-05
threshold=1.6500000000000001 1.3500000000000003 3.1500000000000004 1.4500000000000002
decision_type=2 2 2 2
left_child=1 2 3 -1
right_child=-2 -3 -4 -5
leaf_value=-0.042845865845705378 0.059198639254424548 -0.016939958392107633 -0.043522763809326813 -0.04270402903140378
leaf_weight=5.4404596090316826 13.766245037317274 6.1145773828029624 5.9151926040649405 5.1205120533704758
leaf_count=21 37 20 22 20
internal_value=5.91099e-05 -0.0359791 -0.0430448 -0.0427771
internal_weight=36.357 22.5907 16.4762 10.561
internal_count=120 83 63 41
is_linear=0
shrinkage=0.05


Tree=24
num_leaves=5
num_cat=0
split_feature=2 2 2 3
split_gain=34.2236 0.0159577 0.00123013 0.000517365
threshold=3.1500000000000004 1.4500000000000002 5.3500000000000005 1.3500000000000003
decision_type=2 2 2 2
left_child=1 -1 3 -2
right_child=2 -3 -4 -5
leaf_value=0.058203299616589134 -0.042645418440994919 0.054952521858202256 -0.042154954404492684 -0.043256890918585478
leaf_weight=7.7084155678749067 5.6322658658027676 7.3985748589038849 5.7021202296018592 8.966126620769499
leaf_count=21 22 20 23 34
internal_value=-0.000372355 0.0566112 -0.0427777 -0.043021
internal_weight=35.4075 15.107 20.3005 14.5984
internal_count=120 41 79 56
is_linear=0
shrinkage=0.05


Tree=25
num_leaves=4
num_cat=0
split_feature=3 2 3
split_gain=10.2126 17.7297 0.173081
threshold=0.45000000000000007 4.9500000000000011 1.3500000000000003
decision_type=2 2 2
left_child=-1 2 -2
right_child=1 -3 -4
leaf_value=-0.043099994163896233 0.052748631108749611 -0.035657153676807156 0.042495170456624876
leaf_weight=9.9046533107757551 9.1393610835075432 10.178513228893278 7.4876775443553916
leaf_count=38 25 36 21
internal_value=0.000284706 0.0163154 0.0481312
internal_weight=36.7102 26.8056 16.627
internal_count=120 82 46
is_linear=0
shrinkage=0.05


Tree=26
num_leaves=5
num_cat=0
split_feature=2 2 1 0
split_gain=28.4533 0.876092 0.105358 0.000818059
threshold=4.7500000000000009 5.3500000000000005 2.8500000000000001 5.2500000000000009
decision_type=2 2 2 2
left_child=2 -2 -1 -4
right_child=1 -3 3 -5
leaf_value=-0.034310797524099962 0.037200021617202005 0.06071559931537393 -0.042105522827764572 -0.042869064835302964
leaf_weight=5.5227329730987575 7.4121158719062796 8.5061102807521802 7.6592392921447736 6.4724124819040298
leaf_count=21 20 23 31 25
internal_value=7.68157e-05 0.0497659 -0.0401667 -0.0424552
internal_weight=35.5726 15.9182 19.6544 14.1317
internal_count=120 43 77 56
is_linear=0
shrinkage=0.05


Tree=27
num_leaves=5
num_cat=0
split_feature=2 2 2 3
split_gain=31.4129 0.0153077 0.00125974 0.000575499
threshold=3.1500000000000004 1.4500000000000002 5.3500000000000005 1.3500000000000003
decision_type=2 2 2 2
left_child=1 -1 3 -2
right_child=2 -3 -4 -5
leaf_value=0.05582145876409797 -0.042008480427416311 0.052615154408313762 -0.041518127448089415 -0.042665880296748289
leaf_weight=7.5776418745517713 5.4073096513748196 7.3171088099479675 5.4549314379692069 8.6619155108928663
leaf_count=21 22 20 23 34
internal_value=-0.000442019 0.0542463 -0.0421631 -0.0424132
internal_weight=34.4189 14.8948 19.5242 14.0692
internal_count=120 41 79 56
is_linear=0
shrinkage=0.05


Tree=28
num_leaves=4
num_cat=0
split_feature=2 3 3
split_gain=9.52367 16.347 0.136264
threshold=1.8 1.6500000000000001 1.3500000000000003
decision_type=2 2 2
left_child=-1 2 -2
right_child=1 -3 -4
leaf_value=-0.042516735090519633 0.050845175954673721 -0.034300432768200786 0.041653259656679965
leaf_weight=9.5250160247087461 9.016608536243444 10.063409537076948 7.2931202650070182
leaf_count=38 25 37 20
internal_value=0.000336546 0.0158136 0.0467349
internal_weight=35.8982 26.3731 16.3097
internal_count=120 82 45
is_linear=0
shrinkage=0.05


Tree=29
num_leaves=5
num_cat=0
split_feature=2 2 0 2
split_gain=25.9847 0.831455 0.109086 0.00125931
threshold=4.7500000000000009 5.3500000000000005 5.0500000000000007 3.6000000000000005
decision_type=2 2 2 2
left_child=2 -2 -1 -4
right_child=1 -3 3 -5
leaf_value=-0.034101519418199895 0.035176632651771504 0.058145741167480128 -0.041512412367523129 -0.04254472239262197
leaf_weight=6.3038100302219418 7.4203353226184836 8.4001456797122938 4.7274310886859876 7.8765616416931152
leaf_count=26 20 23 20 31
internal_value=9.01976e-05 0.0473725 -0.0394717 -0.0421575
internal_weight=34.7283 15.8205 18.9078 12.604
internal_count=120 43 77 51
is_linear=0
shrinkage=0.05


Tree=30
num_leaves=5
num_cat=0
split_feature=2 2 2 3
split_gain=28.9325 0.0153052 0.00138303 0.000667475
threshold=3.1500000000000004 1.4500000000000002 5.3500000000000005 1.3500000000000003
decision_type=2 2 2 2
left_child=1 -1 3 -2
right_child=2 -3 -4 -5
leaf_value=0.053778669314329779 -0.041428685814138812 0.0505447033457187 -0.04091527665955956 -0.042150478871467792
leaf_weight=7.4225929975509626 5.1881491839885738 7.2145579159259796 5.2017105966806403 8.3706247061490995
leaf_count=21 22 20 23 34
internal_value=-0.00050179 0.0521847 -0.0416084 -0.0418743
internal_weight=33.3976 14.6372 18.7605 13.5588
internal_count=120 41 79 56
is_linear=0
shrinkage=0.05


Tree=31
num_leaves=4
num_cat=0
split_feature=2 2 0
split_gain=8.80049 14.8847 0.159532
threshold=1.8 4.9500000000000011 5.7500000000000009
decision_type=2 2 2
left_child=-1 2 -2
right_child=1 -3 -4
leaf_value=-0.041865286406908814 0.039200920023131879 -0.034088153930521788 0.049108046495997482
leaf_weight=9.1201335191726667 7.7856868803501191 9.6132707744836789 8.4993002712726575
leaf_count=38 22 36 24
internal_value=0.00037336 0.0152478 0.0443715
internal_weight=35.0184 25.8983 16.285
internal_count=120 82 46
is_linear=0
shrinkage=0.05


Tree=32
num_leaves=5
num_cat=0
split_feature=2 2 1 0
split_gain=23.7994 0.813055 0.112922 0.000704723
threshold=4.7500000000000009 5.3500000000000005 2.8500000000000001 5.2500000000000009
decision_type=2 2 2 2
left_child=2 -2 -1 -4
right_child=1 -3 3 -5
leaf_value=-0.032550636633215654 0.03323844281050755 0.05605293384767332 -0.040960218393032564 -0.041698004878076469
leaf_weight=5.1441292762756374 7.405711203813552 8.2616763710975629 7.0345113277435285 5.9950482249259949
leaf_count=21 20 23 31 25
internal_value=0.000108866 0.0452689 -0.0388232 -0.0412997
internal_weight=33.8411 15.6674 18.1737 13.0296
internal_count=120 43 77 56
is_linear=0
shrinkage=0.05


Tree=33
num_leaves=5
num_cat=0
split_feature=2 2 2 3
split_gain=26.6489 0.015562 0.00136716 0.000606795
threshold=3.1500000000000004 1.4500000000000002 5.3500000000000005 1.3500000000000003
decision_type=2 2 2 2
left_child=1 -1 3 -2
right_child=2 -3 -4 -5
leaf_value=0.051925136165553477 -0.040915561447457754 0.048629563756139332 -0.04037422266097191 -0.041617484999030008
leaf_weight=7.2401029765605909 4.9819060564041164 7.0901033580303192 4.9617364257574073 8.0606145560741407
leaf_count=21 22 20 23 34
internal_value=-0.000584339 0.0502946 -0.0410806 -0.0413494
internal_weight=32.3345 14.3302 18.0043 13.0425
internal_count=120 41 79 56
is_linear=0
shrinkage=0.05


Tree=34
num_leaves=4
num_cat=0
split_feature=3 3 3
split_gain=8.21418 13.8988 0.120608
threshold=0.45000000000000007 1.6500000000000001 1.3500000000000003
decision_type=2 2 2
left_child=-1 2 -2
right_child=1 -3 -4
leaf_value=-0.041365157900854259 0.047400653178528845 -0.032964053613757802 0.038643057267292683
leaf_weight=8.7455074191093427 8.7225669026374835 9.51580101251602 7.1572684943675986
leaf_count=38 25 37 20
internal_value=0.000427503 0.0148197 0.0434535
internal_weight=34.1411 25.3956 15.8798
internal_count=120 82 45
is_linear=0
shrinkage=0.05


Tree=35
num_leaves=5
num_cat=0
split_feature=3 2 2 2
split_gain=22.0496 1.27077 0.0011345 5.9245e-06
threshold=1.6500000000000001 4.4500000000000011 3.1500000000000004 1.4500000000000002
decision_type=2 2 2 2
left_child=1 2 3 -1
right_child=-2 -3 -4 -5
leaf_value=-0.040471626624130216 0.050046140860419565 -0.01156849536809771 -0.041329172833765693 -0.04038988930177282
leaf_weight=4.5751922279596346 13.233915627002714 4.9797533452510825 5.843765288591384 4.3009734004735947
leaf_count=21 37 17 25 20
internal_value=0.000130531 -0.0334019 -0.0407882 -0.040432
internal_weight=32.9336 19.6997 14.7199 8.87617
internal_count=120 83 66 41
is_linear=0
shrinkage=0.05


Tree=36
num_leaves=5
num_cat=0
split_feature=2 2 2 3
split_gain=24.5857 0.0157489 0.00122793 0.000570136
threshold=3.1500000000000004 1.4500000000000002 5.3500000000000005 1.3500000000000003
decision_type=2 2 2 2
left_child=1 -1 3 -2
right_child=2 -3 -4 -5
leaf_value=0.050276647789919894 -0.040413276538511331 0.046921144059831749 -0.039898494659858758 -0.041108115991469109
leaf_weight=7.0379072427749652 4.7682535946369189 6.9499392807483673 4.738822028040885 7.7515226155519485
leaf_count=21 22 20 23 34
internal_value=-0.000655486 0.0486094 -0.040584 -0.0408435
internal_weight=31.2464 13.9878 17.2586 12.5198
internal_count=120 41 79 56
is_linear=0
shrinkage=0.05


Tree=37
num_leaves=4
num_cat=0
split_feature=2 2 0
split_gain=7.61922 12.6613 0.15048
threshold=1.8 4.9500000000000011 5.7500000000000009
decision_type=2 2 2
left_child=-1 2 -2
right_child=1 -3 -4
leaf_value=-0.04082274240751347 0.036277445507914639 -0.032748073376362694 0.046047688513826436
leaf_weight=8.3594784289598447 7.5377902984619167 9.0643403232097608 8.2592489421367628
leaf_count=38 22 36 24
internal_value=0.00047183 0.0143569 0.0413857
internal_weight=33.2209 24.8614 15.797
internal_count=120 82 46
is_linear=0
shrinkage=0.05


Tree=38
num_leaves=5
num_cat=0
split_feature=2 2 1 3
split_gain=20.1337 0.790385 0.117983 0.000834428
threshold=4.7500000000000009 5.3500000000000005 2.8500000000000001 0.45000000000000007
decision_type=2 2 2 2
left_child=2 -2 -1 -4
right_child=1 -3 3 -5
leaf_value=-0.031039275015846836 0.029892361958166642 0.052680292062900196 -0.040011012050752692 -0.040883038070533458
leaf_weight=4.795222848653796 7.3219414055347425 7.9222002625465393 7.7093532830476743 4.258675754070282
leaf_count=21 20 23 37 19
internal_value=0.000150186 0.041735 -0.0376661 -0.0403213
internal_weight=32.0074 15.2441 16.7633 11.968
internal_count=120 43 77 56
is_linear=0
shrinkage=0.05


Tree=39
num_leaves=5
num_cat=0
split_feature=2 2 2 3
split_gain=22.7161 0.0164108 0.0012048 0.000527016
threshold=3.1500000000000004 1.4500000000000002 5.3500000000000005 1.3500000000000003
decision_type=2 2 2 2
left_child=1 -1 3 -2
right_child=2 -3 -4 -5
leaf_value=0.048811155112231303 -0.039970384327532443 0.045339525877620371 -0.039434807680132994 -0.040652352784385018
leaf_weight=6.8209608197212237 4.5694481432437914 6.7955290079116821 4.509060636162757 7.4545089453458786
leaf_count=21 22 20 23 34
internal_value=-0.000744782 0.0470786 -0.0401318 -0.0403932
internal_weight=30.1495 13.6165 16.533 12.024
internal_count=120 41 79 56
is_linear=0
shrinkage=0.05


Tree=40
num_leaves=4
num_cat=0
split_feature=3 3 3
split_gain=7.11761 11.78 0.119618
threshold=0.45000000000000007 1.6500000000000001 1.3500000000000003
decision_type=2 2 2
left_child=-1 2 -2
right_child=1 -3 -4
leaf_value=-0.040392388300108384 0.044611299681710376 -0.031582113185070475 0.035750255004233372
leaf_weight=7.9964381009340277 8.3535461723804492 8.9567720443010312 7.0001863539218894
leaf_count=38 25 37 20
internal_value=0.000527812 0.0139877 0.0405713
internal_weight=32.3069 24.3105 15.3537
internal_count=120 82 45
is_linear=0
shrinkage=0.05


Tree=41
num_leaves=5
num_cat=0
split_feature=3 2 2 2
split_gain=18.6737 1.19815 0.00104608 1.20419e-06
threshold=1.6500000000000001 4.4500000000000011 3.1500000000000004 1.4500000000000002
decision_type=2 2 2 2
left_child=1 2 3 -1
right_child=-2 -3 -4 -5
leaf_value=-0.039512328716872436 0.046605988846931796 -0.010848597026297577 -0.040392702653333001 -0.03947368270815111
leaf_weight=4.1547516286373192 12.760403692722319 4.8396368473768225 5.3993778377771369 3.9151586890220642
leaf_count=21 37 17 25 20
internal_value=0.000173897 -0.0321869 -0.039854 -0.0394936
internal_weight=31.0693 18.3089 13.4693 8.06991
internal_count=120 83 66 41
is_linear=0
shrinkage=0.05


Tree=42
num_leaves=5
num_cat=0
split_feature=2 2 2 3
split_gain=21.0157 0.0169419 0.00107386 0.000497896
threshold=3.1500000000000004 1.4500000000000002 5.3500000000000005 1.3500000000000003
decision_type=2 2 2 2
left_child=1 -1 3 -2
right_child=2 -3 -4 -5
leaf_value=0.047496458561123299 -0.039534881644490025 0.043917035427183351 -0.039029783248364529 -0.040212458011215847
leaf_weight=6.5918842554092425 4.3641926944255811 6.6314034461975098 4.2985871732234946 7.1580788791179657
leaf_count=21 22 20 23 34
internal_value=-0.000820543 0.0457014 -0.0397042 -0.0399558
internal_weight=29.0441 13.2233 15.8209 11.5223
internal_count=120 41 79 56
is_linear=0
shrinkage=0.05


Tree=43
num_leaves=4
num_cat=0
split_feature=2 2 0
split_gain=6.61746 10.8279 0.144091
threshold=1.8 4.9500000000000011 5.7500000000000009
decision_type=2 2 2
left_child=-1 2 -2
right_child=1 -3 -4
leaf_value=-0.039935328459134924 0.0337888722382612 -0.031488503930524103 0.043534770577110651
leaf_weight=7.6291390210390118 7.2430337369442004 8.5312993973493558 7.9610902965068817
leaf_count=38 22 36 24
internal_value=0.000574156 0.0135949 0.038892
internal_weight=31.3646 23.7354 15.2041
internal_count=120 82 46
is_linear=0
shrinkage=0.05


Tree=44
num_leaves=5
num_cat=0
split_feature=2 2 0 2
split_gain=17.0982 0.780863 0.125342 0.00115754
threshold=4.7500000000000009 5.3500000000000005 5.0500000000000007 3.6000000000000005
decision_type=2 2 2 2
left_child=2 -2 -1 -4
right_child=1 -3 3 -5
leaf_value=-0.030214281067536309 0.026967107397239329 0.050009897720280909 -0.039091257452188236 -0.040193217703632107
leaf_weight=5.1102529466152218 7.1936905086040479 7.5198942720890045 3.7444670498371107 6.5548328012228012
leaf_count=26 20 23 20 31
internal_value=0.000193333 0.0387439 -0.0366161 -0.0397926
internal_weight=30.1231 14.7136 15.4096 10.2993
internal_count=120 43 77 51
is_linear=0
shrinkage=0.05


Tree=45
num_leaves=5
num_cat=0
split_feature=2 2 2 3
split_gain=19.4934 0.0180955 0.00105346 0.000456927
threshold=3.1500000000000004 1.4500000000000002 5.3500000000000005 1.3500000000000003
decision_type=2 2 2 2
left_child=1 -1 3 -2
right_child=2 -3 -4 -5
leaf_value=0.046357258265931595 -0.039158807657582666 0.042600836799905402 -0.038631231187722929 -0.039821745473244068
leaf_weight=6.3631855845451373 4.1784603893756849 6.4615060687065125 4.0812882930040351 6.8770953714847565
leaf_count=21 22 20 23 34
internal_value=-0.000890554 0.0444646 -0.0393178 -0.0395712
internal_weight=27.9615 12.8247 15.1368 11.0556
internal_count=120 41 79 56
is_linear=0
shrinkage=0.05


Tree=46
num_leaves=4
num_cat=0
split_feature=3 3 3
split_gain=6.17341 10.011 0.119925
threshold=0.45000000000000007 1.6500000000000001 1.3500000000000003
decision_type=2 2 2
left_child=-1 2 -2
right_child=1 -3 -4
leaf_value=-0.039556991115116152 0.042271160846618139 -0.03026379022312449 0.033222458076960414
leaf_weight=7.2782834917306927 7.9259341061115283 8.4168984442949277 6.8058536052703857
leaf_count=38 25 37 20
internal_value=0.000608387 0.013237 0.0380908
internal_weight=30.427 23.1487 14.7318
internal_count=120 82 45
is_linear=0
shrinkage=0.05


Tree=47
num_leaves=5
num_cat=0
split_feature=3 2 2 2
split_gain=15.8774 1.1371 0.000805545 1.71846e-07
threshold=1.6500000000000001 4.4500000000000011 3.1500000000000004 1.4500000000000002
decision_type=2 2 2 2
left_child=1 2 3 -1
right_child=-2 -3 -4 -5
leaf_value=-0.038720480519167634 0.043726361686800275 -0.010122793506917386 -0.03953851360644383 -0.03870516404322126
leaf_weight=3.7717530280351692 12.201913386583326 4.6979814469814292 4.9516013413667679 3.5596198439598083
leaf_count=21 37 17 25 20
internal_value=0.000218959 -0.0310439 -0.0390458 -0.038713
internal_weight=29.1829 16.981 12.283 7.33137
internal_count=120 83 66 41
is_linear=0
shrinkage=0.05


Tree=48
num_leaves=5
num_cat=0
split_feature=2 2 2 3
split_gain=18.0743 0.0188796 0.000932424 0.000433292
threshold=3.1500000000000004 1.4500000000000002 5.3500000000000005 1.3500000000000003
decision_type=2 2 2 2
left_child=1 -1 3 -2
right_child=2 -3 -4 -5
leaf_value=0.045290025417384527 -0.03877973678965646 0.041388296465089958 -0.038285751108858596 -0.039440177154818123
leaf_weight=6.1203056573867816 3.9832782596349698 6.2834674119949341 3.8849318176507941 6.5955094397068024
leaf_count=21 22 20 23 34
internal_value=-0.000970886 0.0433135 -0.0389482 -0.0391915
internal_weight=26.8675 12.4038 14.4637 10.5788
internal_count=120 41 79 56
is_linear=0
shrinkage=0.05


Tree=49
num_leaves=4
num_cat=0
split_feature=2 2 3
split_gain=5.7532 9.3268 0.693312
threshold=1.8 5.0500000000000007 1.4500000000000002
decision_type=2 2 2
left_child=-1 2 -2
right_child=1 -3 -4
leaf_value=-0.039174687928546309 0.042697933902444751 -0.035131443015196225 0.020971248038958713
leaf_weight=6.9338434785604504 9.645170062780382 6.9786684960126868 5.9288997948169699
leaf_count=38 31 32 19
internal_value=0.000656686 0.0129028 0.0344268
internal_weight=29.4866 22.5527 15.5741
internal_count=120 82 50
is_linear=0
shrinkage=0.05


Tree=50
num_leaves=5
num_cat=0
split_feature=2 2 1 2
split_gain=14.5615 0.779696 0.133223 0.000909972
threshold=4.7500000000000009 5.3500000000000005 2.8500000000000001 1.8
decision_type=2 2 2 2
left_child=2 -2 -1 -4
right_child=1 -3 3 -5
leaf_value=-0.02807758170662419 0.024365620433616272 0.047869251204259937 -0.038400967597878991 -0.039390773802783371
leaf_weight=4.1166391074657467 7.0334031581878644 7.0809288024902344 6.3493623584508878 3.6608366370201111
leaf_count=21 20 23 37 19
internal_value=0.000238017 0.036157 -0.0356492 -0.038763
internal_weight=28.2412 14.1143 14.1268 10.0102
internal_count=120 43 77 56
is_linear=0
shrinkage=0.05


Tree=51
num_leaves=5
num_cat=0
split_feature=2 0 2 3
split_gain=16.783 0.0561279 0.000891274 0.000467162
threshold=3.1500000000000004 5.0500000000000007 5.3500000000000005 1.3500000000000003
decision_type=2 2 2 2
left_child=1 -1 3 -2
right_child=2 -3 -4 -5
leaf_value=0.045483311780364521 -0.038414941727162255 0.038624881525548216 -0.037946175066573981 -0.039116712795077634
leaf_weight=6.3505693376064318 3.7873802781105024 5.6257410645484924 3.6838888674974433 6.3433227092027664
leaf_count=22 22 19 23 34
internal_value=-0.00105746 0.0422616 -0.0386122 -0.0388544
internal_weight=25.7909 11.9763 13.8146 10.1307
internal_count=120 41 79 56
is_linear=0
shrinkage=0.05


Tree=52
num_leaves=4
num_cat=0
split_feature=3 2 3
split_gain=5.38771 8.55987 0.6806
threshold=0.45000000000000007 5.0500000000000007 1.4500000000000002
decision_type=2 2 2
left_child=-1 2 -2
right_child=1 -3 -4
leaf_value=-0.03886200868353587 0.041745629778775196 -0.034403727980448662 0.020047373511431946
leaf_weight=6.6090937107801464 9.3464711606502551 6.7145783901214591 5.8922914266586295
leaf_count=38 31 32 19
internal_value=0.000715979 0.012631 0.0333557
internal_weight=28.5624 21.9533 15.2388
internal_count=120 82 50
is_linear=0
shrinkage=0.05


Tree=53
num_leaves=5
num_cat=0
split_feature=3 2 2 2
split_gain=13.5202 1.43844 0.00104227 2.39835e-07
threshold=1.6500000000000001 4.5500000000000007 3.1500000000000004 1.4500000000000002
decision_type=2 2 2 2
left_child=1 2 3 -1
right_child=-2 -3 -4 -5
leaf_value=-0.038007307282166086 0.041222625848879188 -0.0029694744745153907 -0.038955337779566696 -0.038026353742993735
leaf_weight=3.3961243033409136 11.589280933141707 3.7567204087972632 5.3457640260457993 3.2198390737175941
leaf_count=21 37 13 29 20
internal_value=0.000249848 -0.0299596 -0.0384361 -0.0380166
internal_weight=27.3077 15.7184 11.9617 6.61596
internal_count=120 83 70 41
is_linear=0
shrinkage=0.05


Tree=54
num_leaves=5
num_cat=0
split_feature=2 0 2 3
split_gain=15.5883 0.0563912 0.000749586 0.000430869
threshold=3.1500000000000004 5.0500000000000007 5.3500000000000005 1.3500000000000003
decision_type=2 2 2 2
left_child=1 -1 3 -2
right_child=2 -3 -4 -5
leaf_value=0.044584562836089331 -0.03808118704786654 0.037584373139630992 -0.037661444954589507 -0.038771495646799804
leaf_weight=6.1025036871433276 3.6008947640657407 5.4429512619972229 3.5091116130352011 6.0724676698446274
leaf_count=22 22 19 23 34
internal_value=-0.00113539 0.0412844 -0.0382874 -0.0385145
internal_weight=24.7279 11.5455 13.1825 9.67336
internal_count=120 41 79 56
is_linear=0
shrinkage=0.05


Tree=55
num_leaves=4
num_cat=0
split_feature=2 2 3
split_gain=5.02684 7.90817 0.647135
threshold=1.8 5.0500000000000007 1.4500000000000002
decision_type=2 2 2
left_child=-1 2 -2
right_child=1 -3 -4
leaf_value=-0.038530359423706827 0.040767702000222408 -0.033818706206957476 0.0194168299669303
leaf_weight=6.2871887087821987 9.0473469793796557 6.4696200489997855 5.8397081941366187
leaf_count=38 31 32 19
internal_value=0.000766403 0.012335 0.0323924
internal_weight=27.6439 21.3567 14.8871
internal_count=120 82 50
is_linear=0
shrinkage=0.05


Tree=56
num_leaves=5
num_cat=0
split_feature=3 2 2 2
split_gain=12.4864 1.38184 0.000918008 5.5281e-07
threshold=1.6500000000000001 4.5500000000000007 3.1500000000000004 1.4500000000000002
decision_type=2 2 2 2
left_child=1 2 3 -1
right_child=-2 -3 -4 -5
leaf_value=-0.037690244982243 0.040081289630350708 -0.0030467314673968933 -0.038607752194665682 -0.037719931099652999
leaf_weight=3.2193427383899706 11.274346083402632 3.7314923256635657 5.1014801114797592 3.0577331557869911
leaf_count=21 37 13 29 20
internal_value=0.00026112 -0.0294507 -0.0381096 -0.0377047
internal_weight=26.3844 15.11 11.3786 6.27708
internal_count=120 83 70 41
is_linear=0
shrinkage=0.05


Tree=57
num_leaves=5
num_cat=0
split_feature=2 0 2 3
split_gain=14.4916 0.0569254 0.000631331 0.000399743
threshold=3.1500000000000004 5.0500000000000007 5.3500000000000005 1.3500000000000003
decision_type=2 2 2 2
left_child=1 -1 3 -2
right_child=2 -3 -4 -5
leaf_value=0.043770702756761565 -0.037770819385203491 0.036603839116280151 -0.037397526690430269 -0.038452072360134142
leaf_weight=5.8541439473629016 3.421005040407179 5.2603394985198975 3.341137930750846 5.8108251243829727
leaf_count=22 22 19 23 34
internal_value=-0.00121643 0.0403787 -0.0379865 -0.0381996
internal_weight=23.6875 11.1145 12.573 9.23183
internal_count=120 41 79 56
is_linear=0
shrinkage=0.05


Tree=58
num_leaves=4
num_cat=0
split_feature=3 3 3
split_gain=4.71247 7.33444 0.104702
threshold=0.45000000000000007 1.6500000000000001 1.3500000000000003
decision_type=2 2 2
left_child=-1 2 -2
right_child=1 -3 -4
leaf_value=-0.038265553100094343 0.038497442186974623 -0.027770020478959462 0.029629126914295253
leaf_weight=5.9859995096921947 6.9574226438999194 7.4163893312215796 6.3804652690887451
leaf_count=38 25 37 20
internal_value=0.000818231 0.0120909 0.0342551
internal_weight=26.7403 20.7543 13.3379
internal_count=120 82 45
is_linear=0
shrinkage=0.05


Tree=59
num_leaves=5
num_cat=0
split_feature=3 2 2 2
split_gain=11.5393 1.32829 0.000808744 9.19138e-07
threshold=1.6500000000000001 4.5500000000000007 3.1500000000000004 1.4500000000000002
decision_type=2 2 2 2
left_child=1 2 3 -1
right_child=-2 -3 -4 -5
leaf_value=-0.037396037101341137 0.039011847323510873 -0.0031196713265007042 -0.038284294581783056 -0.037435347615166557
leaf_weight=3.0494481474161166 10.956286787986754 3.7055679112672797 4.8649782240390778 2.9020943269133568
leaf_count=21 37 13 29 20
internal_value=0.000272168 -0.0289552 -0.0378061 -0.0374152
internal_weight=25.4784 14.5221 10.8165 5.95154
internal_count=120 83 70 41
is_linear=0
shrinkage=0.05


Tree=60
num_leaves=5
num_cat=0
split_feature=2 0 2 3
split_gain=13.4818 0.0577521 0.000556941 0.00037545
threshold=3.1500000000000004 5.0500000000000007 5.3500000000000005 1.3500000000000003
decision_type=2 2 2 2
left_child=1 -1 3 -2
right_child=2 -3 -4 -5
leaf_value=0.043028362368481989 -0.037487018451740593 0.035667899753735043 -0.037141401707254627 -0.038163388730139969
leaf_weight=5.607103496789934 3.2508464306592924 5.0789996385574341 3.1732679754495612 5.5624184310436249
leaf_count=22 22 19 23 34
internal_value=-0.0013048 0.03953 -0.0377094 -0.0379139
internal_weight=22.6726 10.6861 11.9865 8.81326
internal_count=120 41 79 56
is_linear=0
shrinkage=0.05


Tree=61
num_leaves=4
num_cat=0
split_feature=2 2 1
split_gain=4.40115 6.96354 0.639858
threshold=1.8 5.0500000000000007 2.8500000000000001
decision_type=2 2 2
left_child=-1 2 -2
right_child=1 -3 -4
leaf_value=-0.037976022627603634 0.02123554932747709 -0.033052615977387505 0.042597026168311028
leaf_weight=5.6870696991682079 7.6158404350280779 6.0493469983339301 6.4954681098461151
leaf_count=38 27 32 23
internal_value=0.000870295 0.0118284 0.0310683
internal_weight=25.8477 20.1607 14.1113
internal_count=120 82 50
is_linear=0
shrinkage=0.05


Tree=62
num_leaves=5
num_cat=0
split_feature=2 3 2 2
split_gain=10.568 1.04088 0.153967 0.000205133
threshold=4.7500000000000009 1.8500000000000003 4.2500000000000009 1.8
decision_type=2 2 2 2
left_child=2 -2 3 -1
right_child=1 -3 -4 -5
leaf_value=-0.037191592469070951 0.01618336464160355 0.044779629437091441 -0.024463874948088181 -0.037692617437886752
leaf_weight=5.2913898751139659 5.8674759268760663 6.9530694782733917 3.1473688334226599 3.3277422115206718
leaf_count=38 18 25 17 22
internal_value=0.000288282 0.0316922 -0.0339288 -0.037385
internal_weight=24.587 12.8205 11.7665 8.61913
internal_count=120 43 77 60
is_linear=0
shrinkage=0.05


Tree=63
num_leaves=5
num_cat=0
split_feature=2 0 2 3
split_gain=12.5517 0.0593736 0.000482895 0.000299099
threshold=3.1500000000000004 5.0500000000000007 5.3500000000000005 1.3500000000000003
decision_type=2 2 2 2
left_child=1 -1 3 -2
right_child=2 -3 -4 -5
leaf_value=0.042357190758872253 -0.037258345974918054 0.034743659716276402 -0.036910349998691513 -0.037875963777534709
leaf_weight=5.363202244043352 3.1095496863126737 4.9005187749862671 3.0166985690593711 5.3037834390997887
leaf_count=22 22 19 23 34
internal_value=-0.00141321 0.038722 -0.0374531 -0.0376477
internal_weight=21.6938 10.2637 11.43 8.41333
internal_count=120 41 79 56
is_linear=0
shrinkage=0.05


Tree=64
num_leaves=4
num_cat=0
split_feature=3 2 1
split_gain=4.13299 6.41403 0.636675
threshold=0.45000000000000007 5.0500000000000007 2.8500000000000001
decision_type=2 2 2
left_child=-1 2 -2
right_child=1 -3 -4
leaf_value=-0.037760041119601961 0.020302878386718487 -0.032415606463691529 0.041869786291372078
leaf_weight=5.411058276891711 7.4689226150512713 5.8193729519844046 6.3156380951404572
leaf_count=38 27 32 23
internal_value=0.000924036 0.0116016 0.0301841
internal_weight=25.015 19.6039 13.7846
internal_count=120 82 50
is_linear=0
shrinkage=0.05


Tree=65
num_leaves=5
num_cat=0
split_feature=3 2 2 2
split_gain=9.84345 1.2708 0.000683918 1.67653e-06
threshold=1.6500000000000001 4.5500000000000007 3.1500000000000004 1.4500000000000002
decision_type=2 2 2 2
left_child=1 2 3 -1
right_child=-2 -3 -4 -5
leaf_value=-0.036869095355187169 0.037048971481827862 -0.0026583140231066179 -0.037735811500904264 -0.03692513514586835
leaf_weight=2.7303761839866656 10.314634069800375 3.6350638270378104 4.448558509349823 2.6107930243015289
leaf_count=21 37 13 29 20
internal_value=0.000317745 -0.0279039 -0.0372779 -0.0368965
internal_weight=23.7394 13.4248 9.78973 5.34117
internal_count=120 83 70 41
is_linear=0
shrinkage=0.05


Tree=66
num_leaves=5
num_cat=0
split_feature=2 0 2 3
split_gain=11.6909 0.0612145 0.000407385 0.000229095
threshold=3.1500000000000004 5.0500000000000007 5.3500000000000005 1.3500000000000003
decision_type=2 2 2 2
left_child=1 -1 3 -2
right_child=2 -3 -4 -5
leaf_value=0.041743507119006387 -0.037045789621009233 0.033853211848476131 -0.036699756960340932 -0.037598916581795795
leaf_weight=5.1234495639801043 2.9744561761617643 4.7252324372529984 2.8694462776184073 5.0507155731320381
leaf_count=22 22 19 23 34
internal_value=-0.00152172 0.0379579 -0.0372111 -0.0373939
internal_weight=20.7433 9.84868 10.8946 8.02517
internal_count=120 41 79 56
is_linear=0
shrinkage=0.05


Tree=67
num_leaves=4
num_cat=0
split_feature=2 2 1
split_gain=3.86201 5.93357 0.626642
threshold=1.8 5.0500000000000007 2.8500000000000001
decision_type=2 2 2
left_child=-1 2 -2
right_child=1 -3 -4
leaf_value=-0.037507794342173335 0.019466460796694934 -0.031873838316547207 0.04112909043417956
leaf_weight=5.1358380913734463 7.318311810493471 5.6065343320369712 6.1386559009552002
leaf_count=38 27 32 23
internal_value=0.000975367 0.011343 0.0293483
internal_weight=24.1993 19.0635 13.457
internal_count=120 82 50
is_linear=0
shrinkage=0.05


Tree=68
num_leaves=5
num_cat=0
split_feature=3 2 2 2
split_gain=9.12496 1.2315 0.000619586 2.01412e-06
threshold=1.6500000000000001 4.5500000000000007 3.1500000000000004 1.4500000000000002
decision_type=2 2 2 2
left_child=1 2 3 -1
right_child=-2 -3 -4 -5
leaf_value=-0.036633563422151086 0.036186477883392784 -0.0026054438693462519 -0.037483458787031354 -0.036696690885508615
leaf_weight=2.5813333839178103 10.005429208278654 3.6015815883874884 4.2505620867013931 2.4750492498278618
leaf_count=21 37 13 29 20
internal_value=0.000347482 -0.0274314 -0.0370385 -0.0366645
internal_weight=22.914 12.9085 9.30694 5.05638
internal_count=120 83 70 41
is_linear=0
shrinkage=0.05


Tree=69
num_leaves=5
num_cat=0
split_feature=2 0 2 3
split_gain=10.8962 0.0632534 0.000344465 0.000175456
threshold=3.1500000000000004 5.0500000000000007 5.3500000000000005 1.4500000000000002
decision_type=2 2 2 2
left_child=1 -1 3 -2
right_child=2 -3 -4 -5
leaf_value=0.041184181942215618 -0.036908937597505756 0.032994373027693383 -0.036504124797481032 -0.037388159304086455
leaf_weight=4.8887164443731326 3.668688550591467 4.5537002235651016 2.7287036553025246 3.9843803644180298
leaf_count=22 28 19 23 28
internal_value=-0.0016344 0.0372346 -0.0369865 -0.0371584
internal_weight=19.8242 9.44242 10.3818 7.65307
internal_count=120 41 79 56
is_linear=0
shrinkage=0.05


Tree=70
num_leaves=4
num_cat=0
split_feature=3 2 1
split_gain=3.63138 5.50429 0.627852
threshold=0.45000000000000007 5.0500000000000007 2.8500000000000001
decision_type=2 2 2
left_child=-1 2 -2
right_child=1 -3 -4
leaf_value=-0.037327893151141316 0.018663499715640949 -0.031338564548486762 0.040633280809833278
leaf_weight=4.8835340663790729 7.1694655716419238 5.402065470814704 5.9514521211385727
leaf_count=38 27 32 23
internal_value=0.00102746 0.0111397 0.0286287
internal_weight=23.4065 18.523 13.1209
internal_count=120 82 50
is_linear=0
shrinkage=0.05


Tree=71
num_leaves=5
num_cat=0
split_feature=3 2 2 2
split_gain=8.46347 1.51136 0.000855626 2.30802e-06
threshold=1.6500000000000001 4.6500000000000012 3.1500000000000004 1.4500000000000002
decision_type=2 2 2 2
left_child=1 2 3 -1
right_child=-2 -3 -4 -5
leaf_value=-0.036414708482874231 0.035366583724120021 0.0036307566502713252 -0.037404718152505699 -0.036484175392336567
leaf_weight=2.4391293749213236 9.7012132555246335 3.0453509837388983 4.5825782939791679 2.3455124571919441
leaf_count=21 37 10 32 20
internal_value=0.000377655 -0.0269684 -0.0369164 -0.0364488
internal_weight=22.1138 12.4126 9.36722 4.78464
internal_count=120 83 73 41
is_linear=0
shrinkage=0.05


Tree=72
num_leaves=5
num_cat=0
split_feature=2 0 2 3
split_gain=10.1595 0.0654809 0.000292941 0.00014002
threshold=3.1500000000000004 5.0500000000000007 5.3500000000000005 1.4500000000000002
decision_type=2 2 2 2
left_child=1 -1 3 -2
right_child=2 -3 -4 -5
leaf_value=0.040670586964744834 -0.036711234686302434 0.032158798368290546 -0.036320526560469427 -0.037149659103158407
leaf_weight=4.6597912311553973 3.5023687034845334 4.3864775598049164 2.5934528782963753 3.7937859892845154
leaf_count=22 28 19 23 28
internal_value=-0.00174956 0.0365433 -0.036777 -0.0369392
internal_weight=18.9359 9.04627 9.88961 7.29615
internal_count=120 41 79 56
is_linear=0
shrinkage=0.05


Tree=73
num_leaves=4
num_cat=0
split_feature=2 3 3
split_gain=3.39703 5.1165 0.122656
threshold=1.8 1.6500000000000001 1.3500000000000003
decision_type=2 2 2
left_child=-1 2 -2
right_child=1 -3 -4
leaf_value=-0.037107660441149139 0.035724202773625507 -0.025074075150397668 0.025448130125859253
leaf_weight=4.6317635849118259 5.8940899670124072 6.3782120943069449 5.7238284200429916
leaf_count=38 25 37 20
internal_value=0.00107923 0.0109076 0.0306615
internal_weight=22.6279 17.9961 11.6179
internal_count=120 82 45
is_linear=0
shrinkage=0.05


Tree=74
num_leaves=5
num_cat=0
split_feature=3 2 2 2
split_gain=7.85711 1.45079 0.000764321 2.55182e-06
threshold=1.6500000000000001 4.6500000000000012 3.1500000000000004 1.4500000000000002
decision_type=2 2 2 2
left_child=1 2 3 -1
right_child=-2 -3 -4 -5
leaf_value=-0.036211296999414666 0.034584381359329619 0.0033811417856296475 -0.03717493192696434 -0.036286398591252877
leaf_weight=2.3036532923579234 9.4031684547662717 3.02414846420288 4.3757430762052536 2.2221249490976334
leaf_count=21 37 10 32 20
internal_value=0.000408306 -0.0265389 -0.0367037 -0.0362482
internal_weight=21.3288 11.9257 8.90152 4.52578
internal_count=120 83 73 41
is_linear=0
shrinkage=0.05


Tree=75
num_leaves=5
num_cat=0
split_feature=2 0 2 3
split_gain=9.47761 0.0671667 0.000256755 0.000133896
threshold=3.1500000000000004 5.0500000000000007 5.3500000000000005 1.4500000000000002
decision_type=2 2 2 2
left_child=1 -1 3 -2
right_child=2 -3 -4 -5
leaf_value=0.040197679683758321 -0.036505786671433282 0.031388403622668738 -0.036140521190719685 -0.036945068846547469
leaf_weight=4.436881363391878 3.3256898745894414 4.2235093265771866 2.4596145376563072 3.6260271668434143
leaf_count=22 28 19 23 28
internal_value=-0.00184492 0.0359016 -0.0365796 -0.0367349
internal_weight=18.0717 8.66039 9.41133 6.95172
internal_count=120 41 79 56
is_linear=0
shrinkage=0.05


Tree=76
num_leaves=4
num_cat=0
split_feature=3 2 1
split_gain=3.1982 4.86747 0.644883
threshold=0.45000000000000007 5.0500000000000007 2.8500000000000001
decision_type=2 2 2
left_child=-1 2 -2
right_child=1 -3 -4
leaf_value=-0.036952214607369381 0.017279565986904166 -0.030596283653997049 0.040208607399535114
leaf_weight=4.4012969136238125 6.7982374727726 5.0558300763368598 5.586495041847229
leaf_count=38 27 32 23
internal_value=0.00113399 0.0107454 0.0276224
internal_weight=21.8419 17.4406 12.3847
internal_count=120 82 50
is_linear=0
shrinkage=0.05


Tree=77
num_leaves=5
num_cat=0
split_feature=2 3 2 2
split_gain=7.25731 1.15957 0.000540293 2.73721e-06
threshold=4.9500000000000011 1.4500000000000002 3.1500000000000004 1.4500000000000002
decision_type=2 2 2 2
left_child=1 2 3 -1
right_child=-2 -3 -4 -5
leaf_value=-0.036022172207220343 0.034460419696908544 -0.0027676364138722997 -0.036892620143556515 -0.036102163265914249
leaf_weight=2.1747514605522174 8.8858497738838178 3.7842691838741302 3.6011672466993332 2.1042619943618774
leaf_count=21 36 15 28 20
internal_value=0.000417145 -0.0255166 -0.0364413 -0.0360615
internal_weight=20.5503 11.6644 7.88018 4.27901
internal_count=120 84 69 41
is_linear=0
shrinkage=0.05


Tree=78
num_leaves=5
num_cat=0
split_feature=2 0 2 3
split_gain=8.84523 0.0697074 0.000228215 0.000110379
threshold=3.1500000000000004 5.0500000000000007 5.3500000000000005 1.4500000000000002
decision_type=2 2 2 2
left_child=1 -1 3 -2
right_child=2 -3 -4 -5
leaf_value=0.039765979910998658 -0.036333869158085307 0.030593085852382101 -0.035971682851288142 -0.036742239807172498
leaf_weight=4.2213728129863757 3.1739240065217 4.0660344660282135 2.3317739963531494 3.4569040462374687
leaf_count=22 28 19 23 28
internal_value=-0.00196832 0.0352655 -0.0363972 -0.0365468
internal_weight=17.25 8.28741 8.9626 6.63083
internal_count=120 41 79 56
is_linear=0
shrinkage=0.05


Tree=79
num_leaves=4
num_cat=0
split_feature=2 2 1
split_gain=2.99666 4.4484 0.638797
threshold=1.8 5.0500000000000007 2.8500000000000001
decision_type=2 2 2
left_child=-1 2 -2
right_child=1 -3 -4
leaf_value=-0.036766665107288619 0.016399752853570614 -0.029879809519111983 0.039503629204211271
leaf_weight=4.1735115274786976 6.6707038283348101 4.8587807044386855 5.424840435385704
leaf_count=38 27 32 23
internal_value=0.00118674 0.0105294 0.0267618
internal_weight=21.1278 16.9543 12.0955
internal_count=120 82 50
is_linear=0
shrinkage=0.05


Tree=80
num_leaves=5
num_cat=0
split_feature=3 2 2 2
split_gain=6.76209 1.74327 0.000896446 2.87693e-06
threshold=1.6500000000000001 4.8500000000000005 3.1500000000000004 1.4500000000000002
decision_type=2 2 2 2
left_child=1 2 3 -1
right_child=-2 -3 -4 -5
leaf_value=-0.035846265783167068 0.033066234789496531 0.011123877322314624 -0.036914590957033019 -0.035930611429968826
leaf_weight=2.0522437170147914 8.8226392120122892 2.4904891848564139 4.4804928302764893 1.9925669357180593
leaf_count=21 37 7 35 20
internal_value=0.000447635 -0.0256769 -0.0364274 -0.0358878
internal_weight=19.8384 11.0158 8.5253 4.04481
internal_count=120 83 76 41
is_linear=0
shrinkage=0.05


Tree=81
num_leaves=5
num_cat=0
split_feature=3 1 1 3
split_gain=8.25896 0.313108 0.0156233 2.68046e-05
threshold=0.45000000000000007 3.0500000000000003 2.6500000000000008 1.6500000000000001
decision_type=2 2 2 2
left_child=-1 2 -2 -4
right_child=1 -3 3 -5
leaf_value=0.039244467717392213 -0.041215057385582357 -0.017594357801212011 -0.036354484441646268 -0.036109096158691782
leaf_weight=6.9684749394655254 2.4385307431220991 2.5844073295593262 2.3653123304247856 2.1017008572816849
leaf_count=38 19 22 21 20
internal_value=-0.00208898 -0.0324401 -0.0379962 -0.036239
internal_weight=16.4584 9.48995 6.90554 4.46701
internal_count=120 82 60 41
is_linear=0
shrinkage=0.05


Tree=82
num_leaves=4
num_cat=0
split_feature=3 3 2
split_gain=2.82367 4.15864 0.206852
threshold=0.45000000000000007 1.6500000000000001 4.4500000000000011
decision_type=2 2 2
left_child=-1 2 -2
right_child=1 -3 -4
leaf_value=-0.036637348843418287 0.035239698469118945 -0.023482375252022524 0.021168762453811024
leaf_weight=3.9649527743458775 5.9321382492780703 5.8469488173723212 4.6665398180484772
leaf_count=38 28 37 17
internal_value=0.00123789 0.0103694 0.0290443
internal_weight=20.4106 16.4456 10.5987
internal_count=120 82 45
is_linear=0
shrinkage=0.05


Tree=83
num_leaves=5
num_cat=0
split_feature=3 2 2 2
split_gain=6.2883 1.65296 0.000781366 2.97268e-06
threshold=1.6500000000000001 4.8500000000000005 3.1500000000000004 1.4500000000000002
decision_type=2 2 2 2
left_child=1 2 3 -1
right_child=-2 -3 -4 -5
leaf_value=-0.035682623165842697 0.032367280025108462 0.010426690506624278 -0.036710188518840607 -0.035770817610688836
leaf_weight=1.9359546229243298 8.5473683625459653 2.4778308272361746 4.2716984078288078 1.8864699080586431
leaf_count=21 37 7 35 20
internal_value=0.000476757 -0.0253066 -0.0362455 -0.0357261
internal_weight=19.1193 10.572 8.09412 3.82242
internal_count=120 83 76 41
is_linear=0
shrinkage=0.05


Tree=84
num_leaves=5
num_cat=0
split_feature=2 1 2 3
split_gain=7.75184 0.0725991 0.000160735 9.01339e-05
threshold=3.1500000000000004 3.4500000000000006 5.3500000000000005 1.4500000000000002
decision_type=2 2 2 2
left_child=1 -1 3 -2
right_child=2 -3 -4 -5
leaf_value=0.029711685680851037 -0.035997322791181334 0.039534426267313544 -0.035693322705574869 -0.036384744112842635
leaf_weight=4.0884641706943521 2.8690818995237333 3.4840701222419739 2.1149716898798943 3.1490555256605148
leaf_count=22 28 19 23 28
internal_value=-0.00217319 0.0342311 -0.0360683 -0.0362
internal_weight=15.7056 7.57253 8.13311 6.01814
internal_count=120 41 79 56
is_linear=0
shrinkage=0.05


Tree=85
num_leaves=4
num_cat=0
split_feature=2 2 1
split_gain=2.65434 3.91763 0.665391
threshold=1.8 5.0500000000000007 2.8500000000000001
decision_type=2 2 2
left_child=-1 2 -2
right_child=1 -3 -4
leaf_value=-0.036539911477581254 0.015015564358939124 -0.029055162157853531 0.039343052723133445
leaf_weight=3.7601022645831135 6.3159160166978818 4.5488379225134841 5.0646635890007019
leaf_count=38 27 32 23
internal_value=0.00124611 0.0101654 0.025842
internal_weight=19.6895 15.9294 11.3806
internal_count=120 82 50
is_linear=0
shrinkage=0.05


Tree=86
num_leaves=5
num_cat=0
split_feature=2 3 2 2
split_gain=5.77262 1.04982 0.000370885 3.10484e-06
threshold=4.9500000000000011 1.4500000000000002 3.1500000000000004 1.4500000000000002
decision_type=2 2 2 2
left_child=1 2 3 -1
right_child=-2 -3 -4 -5
leaf_value=-0.035524448666083029 0.032196692913675516 -0.0025225568122753195 -0.036315413177638409 -0.035617225917079158
leaf_weight=1.8216991499066373 8.0761707872152311 3.6229298785328865 3.1108796074986458 1.7857428714632986
leaf_count=21 36 15 28 20
internal_value=0.000521028 -0.0242166 -0.0359154 -0.0355704
internal_weight=18.4174 10.3413 6.71832 3.60744
internal_count=120 84 69 41
is_linear=0
shrinkage=0.05


Tree=87
num_leaves=5
num_cat=0
split_feature=3 1 0 2
split_gain=7.2491 0.116574 0.0207917 0.000107391
threshold=1.0500000000000003 3.4500000000000006 5.7500000000000009 5.3500000000000005
decision_type=2 2 2 2
left_child=1 -1 -2 -4
right_child=2 -3 3 -5
leaf_value=0.026662297310837114 -0.041867872367242299 0.03917398330152326 -0.036014323712139432 -0.035554698997570876
leaf_weight=4.2510720491409302 1.9416371434926984 3.3122574090957642 3.4719929993152618 2.0046296119689941
leaf_count=28 16 19 34 23
internal_value=-0.0023035 0.0321416 -0.0374222 -0.0358461
internal_weight=14.9816 7.56333 7.41826 5.47662
internal_count=120 47 73 57
is_linear=0
shrinkage=0.05


Tree=88
num_leaves=4
num_cat=0
split_feature=3 3 2
split_gain=2.48148 3.58623 0.191489
threshold=0.45000000000000007 1.6500000000000001 4.4500000000000011
decision_type=2 2 2
left_child=-1 2 -2
right_child=1 -3 -4
leaf_value=-0.036353356495875913 0.034108645603715848 -0.022373752895272506 0.020177934650075429
leaf_weight=3.5583832412958172 5.4922079145908338 5.522798851132392 4.4781965315341949
leaf_count=38 28 37 17
internal_value=0.00130003 0.00994803 0.0278517
internal_weight=19.0516 15.4932 9.9704
internal_count=120 82 45
is_linear=0
shrinkage=0.05


Tree=89
num_leaves=5
num_cat=0
split_feature=3 2 2 2
split_gain=5.43443 1.50924 0.000641144 2.5679e-06
threshold=1.6500000000000001 4.8500000000000005 3.1500000000000004 1.4500000000000002
decision_type=2 2 2 2
left_child=1 2 3 -1
right_child=-2 -3 -4 -5
leaf_value=-0.035386563139049081 0.031007889475046537 0.0093980967742652542 -0.036368705643135733 -0.035473374700363131
leaf_weight=1.7204642668366452 8.0310628414154035 2.4533938467502594 3.8936486840248108 1.6872613206505773
leaf_count=21 37 7 35 20
internal_value=0.000547762 -0.0245299 -0.0359304 -0.0354295
internal_weight=17.7858 9.75477 7.30137 3.40773
internal_count=120 83 76 41
is_linear=0
shrinkage=0.05


Tree=90
num_leaves=5
num_cat=0
split_feature=2 1 1 3
split_gain=6.83459 0.297832 0.0136434 1.93634e-05
threshold=1.8 3.0500000000000003 2.6500000000000008 1.6500000000000001
decision_type=2 2 2 2
left_child=-1 2 -2 -4
right_child=1 -3 3 -5
leaf_value=0.03829016789990649 -0.040724560663342589 -0.016379468689040631 -0.035881287549793861 -0.035656335384128504
leaf_weight=5.9976585954427728 2.1849069297313672 2.2876307964324951 2.0388127192854886 1.8022505566477773
leaf_count=38 19 22 21 20
internal_value=-0.00239078 -0.0317391 -0.0375701 -0.0357757
internal_weight=14.3113 8.3136 6.02597 3.84106
internal_count=120 82 60 41
is_linear=0
shrinkage=0.05


Tree=91
num_leaves=4
num_cat=0
split_feature=2 2 1
split_gain=2.35425 3.42727 0.686306
threshold=1.8 5.0500000000000007 2.8500000000000001
decision_type=2 2 2
left_child=-1 2 -2
right_child=1 -3 -4
leaf_value=-0.036286349675373093 0.013677937693872398 -0.028117672873699526 0.03911192202749509
leaf_weight=3.3883472979068783 6.024622365832327 4.258169323205947 4.7384269684553146
leaf_count=38 27 32 23
internal_value=0.00136086 0.00985297 0.0248752
internal_weight=18.4096 15.0212 10.763
internal_count=120 82 50
is_linear=0
shrinkage=0.05


Tree=92
num_leaves=5
num_cat=0
split_feature=3 2 2 2
split_gain=4.96148 1.48078 0.00055016 2.12829e-06
threshold=1.6500000000000001 4.8500000000000005 3.1500000000000004 1.4500000000000002
decision_type=2 2 2 2
left_child=1 2 3 -1
right_child=-2 -3 -4 -5
leaf_value=-0.0352605889184886 0.030104200830071478 0.0094431625769629528 -0.036194550249120376 -0.035341851619337894
leaf_weight=1.626478873193266 7.7603842765092841 2.4515060484409332 3.6974317282438278 1.5967022590339182
leaf_count=21 37 7 35 20
internal_value=0.000534787 -0.0239495 -0.0357783 -0.0353008
internal_weight=17.1325 9.37212 6.92061 3.22318
internal_count=120 83 76 41
is_linear=0
shrinkage=0.05


Tree=93
num_leaves=5
num_cat=0
split_feature=2 0 1 2
split_gain=6.40679 0.0770884 0.000108352 3.27185e-05
threshold=3.1500000000000004 5.0500000000000007 2.8500000000000001 5.3500000000000005
decision_type=2 2 2 2
left_child=1 -1 -2 -4
right_child=2 -3 3 -5
leaf_value=0.038251853434060797 -0.035864800462038271 0.027450537074136402 -0.035600069950227665 -0.035299022062676731
leaf_weight=3.311978280544281 3.3564568087458611 3.2955375909805298 2.1273974552750592 1.5675517767667768
leaf_count=22 35 19 24 20
internal_value=-0.00251071 0.0328646 -0.0356592 -0.0354724
internal_weight=13.6589 6.60752 7.05141 3.69495
internal_count=120 41 79 44
is_linear=0
shrinkage=0.05


Tree=94
num_leaves=4
num_cat=0
split_feature=3 2 1
split_gain=2.20982 3.15805 0.68393
threshold=0.45000000000000007 5.0500000000000007 2.8500000000000001
decision_type=2 2 2
left_child=-1 2 -2
right_child=1 -3 -4
leaf_value=-0.036199911674472486 0.01293377835766928 -0.027528878410874286 0.038684992734868896
leaf_weight=3.2093020826578167 5.8963449597358686 4.108057737350463 4.5822038501501083
leaf_count=38 27 32 23
internal_value=0.00136311 0.00962762 0.0241946
internal_weight=17.7959 14.5866 10.4785
internal_count=120 82 50
is_linear=0
shrinkage=0.05


Tree=95
num_leaves=5
num_cat=0
split_feature=3 2 2 2
split_gain=4.62335 1.40492 0.000482827 2.19146e-06
threshold=1.6500000000000001 4.8500000000000005 3.1500000000000004 1.4500000000000002
decision_type=2 2 2 2
left_child=1 2 3 -1
right_child=-2 -3 -4 -5
leaf_value=-0.035131457563631362 0.029500433526561433 0.0088297910223718145 -0.03603393605785226 -0.035216380249564992
leaf_weight=1.5286623537540456 7.5345416665077201 2.4362213313579559 3.5206308811903 1.510135445743799
leaf_count=21 37 7 35 20
internal_value=0.000607116 -0.0235932 -0.0356354 -0.0351737
internal_weight=16.5302 8.99565 6.55943 3.0388
internal_count=120 83 76 41
is_linear=0
shrinkage=0.05


Tree=96
num_leaves=5
num_cat=0
split_feature=3 1 0 2
split_gain=6.04652 0.107606 0.0186207 6.44899e-05
threshold=1.0500000000000003 3.4500000000000006 5.7500000000000009 5.3500000000000005
decision_type=2 2 2 2
left_child=1 -1 -2 -4
right_child=2 -3 3 -5
leaf_value=0.025451432898777729 -0.041543382370939824 0.038347146704470071 -0.035603625066037092 -0.035220072394537227
leaf_weight=3.720203272998333 1.7169873490929601 2.8622359037399292 2.9954533129930496 1.7282184734940527
leaf_count=28 16 19 34 23
internal_value=-0.00264172 0.0310589 -0.0370842 -0.0354633
internal_weight=13.0231 6.58244 6.44066 4.72367
internal_count=120 47 73 57
is_linear=0
shrinkage=0.05


Tree=97
num_leaves=4
num_cat=0
split_feature=2 2 1
split_gain=2.07397 2.91957 0.672717
threshold=1.8 5.0500000000000007 2.8500000000000001
decision_type=2 2 2
left_child=-1 2 -2
right_child=1 -3 -4
leaf_value=-0.036064142794709715 0.012370704694479871 -0.02694425741897509 0.038279919679937428
leaf_weight=3.0390537306666401 5.7749527245759946 3.9663184508681288 4.4250106513500214
leaf_count=38 27 32 23
internal_value=0.00141578 0.00945624 0.0236108
internal_weight=17.2053 14.1663 10.2
internal_count=120 82 50
is_linear=0
shrinkage=0.05


Tree=98
num_leaves=5
num_cat=0
split_feature=3 2 2 2
split_gain=4.3033 1.33412 0.00042119 2.18875e-06
threshold=1.6500000000000001 4.8500000000000005 3.1500000000000004 1.4500000000000002
decision_type=2 2 2 2
left_child=1 2 3 -1
right_child=-2 -3 -4 -5
leaf_value=-0.03501611104501496 0.028882861785960886 0.0082455533047829585 -0.035884942145613122 -0.035103464130461622
leaf_weight=1.4397902712225898 7.3040787279605874 2.4205155670642853 3.3526615798473358 1.4286575056612489
leaf_count=21 37 7 35 20
internal_value=0.000629915 -0.0232501 -0.0355044 -0.0350596
internal_weight=15.9457 8.64162 6.22111 2.86845
internal_count=120 83 76 41
is_linear=0
shrinkage=0.05


Tree=99
num_leaves=5
num_cat=0
split_feature=3 1 1 3
split_gain=5.67538 0.297796 0.012536 2.17597e-05
threshold=0.45000000000000007 3.0500000000000003 2.6500000000000008 1.6500000000000001
decision_type=2 2 2 2
left_child=-1 2 -2 -4
right_child=1 -3 3 -5
leaf_value=0.037519179190816924 -0.040427460785613156 -0.014732388061785107 -0.035524606429316381 -0.035267137429489337
leaf_weight=5.1350961923599243 1.9929479509592054 2.0205855518579483 1.7662409543991091 1.5327651798725126
leaf_count=38 19 22 21 20
internal_value=-0.00276956 -0.0310616 -0.0372964 -0.035405
internal_weight=12.4476 7.31254 5.29195 3.29901
internal_count=120 82 60 41
is_linear=0
shrinkage=0.05


Tree=100
num_leaves=4
num_cat=0
split_feature=1 2 1
split_gain=1.9765 2.06115 0.521317
threshold=3.2500000000000004 5.0500000000000007 2.8500000000000001
decision_type=2 2 2
left_child=1 2 -1
right_child=-2 -3 -4
leaf_value=0.011304548546898984 -0.032991269472602579 -0.024671869368169223 0.034237063479062295
leaf_weight=5.7458869889378565 3.3290016427636138 3.2330820932984343 4.3576901853084564
leaf_count=28 36 25 31
internal_value=0.00147339 0.0100762 0.0211954
internal_weight=16.6657 13.3367 10.1036
internal_count=120 84 59
is_linear=0
shrinkage=0.05


Tree=101
num_leaves=5
num_cat=0
split_feature=3 2 2 2
split_gain=4.00739 1.26765 0.000365462 1.84276e-06
threshold=1.6500000000000001 4.8500000000000005 3.1500000000000004 1.4500000000000002
decision_type=2 2 2 2
left_child=1 2 3 -1
right_child=-2 -3 -4 -5
leaf_value=-0.034913900777676241 0.028275478239410581 0.0076885442661843995 -0.035744464726198175 -0.034996335959635701
leaf_weight=1.360229998826979 7.0829015225172052 2.4042492210865021 3.1906764730811119 1.3515161611139772
leaf_count=21 37 7 35 20
internal_value=0.000644562 -0.0229157 -0.0353818 -0.034955
internal_weight=15.3896 8.30667 5.90242 2.71175
internal_count=120 83 76 41
is_linear=0
shrinkage=0.05


Tree=102
num_leaves=5
num_cat=0
split_feature=3 1 0 2
split_gain=5.35892 0.104389 0.0160047 4.59701e-05
threshold=1.0500000000000003 3.4500000000000006 5.7500000000000009 5.3500000000000005
decision_type=2 2 2 2
left_child=1 -1 -2 -4
right_child=2 -3 3 -5
leaf_value=0.024547745765451628 -0.041136411069820661 0.037835998853618019 -0.035379471412803142 -0.035039968471344357
leaf_weight=3.4616819620132446 1.5831312015652654 2.5790696814656258 2.7210450023412704 1.57374881953001
leaf_count=28 16 19 34 23
internal_value=-0.00285094 0.0302211 -0.0368391 -0.0352551
internal_weight=11.9187 6.04075 5.87793 4.29479
internal_count=120 47 73 57
is_linear=0
shrinkage=0.05


Tree=103
num_leaves=4
num_cat=0
split_feature=3 3 2
split_gain=1.86775 2.52696 0.176066
threshold=0.45000000000000007 1.6500000000000001 4.4500000000000011
decision_type=2 2 2
left_child=-1 2 -2
right_child=1 -3 -4
leaf_value=-0.035861247773585271 0.032203400112680455 -0.019679490421958871 0.017825060596905345
leaf_weight=2.7753597795963314 4.5865454971790296 4.8379189893603316 3.9737782925367355
leaf_count=38 28 37 17
internal_value=0.00147151 0.00920475 0.0255288
internal_weight=16.1736 13.3982 8.56032
internal_count=120 82 45
is_linear=0
shrinkage=0.05


Tree=104
num_leaves=5
num_cat=0
split_feature=3 2 2 2
split_gain=3.74118 1.20562 0.00033215 1.9932e-06
threshold=1.6500000000000001 4.8500000000000005 3.1500000000000004 1.4500000000000002
decision_type=2 2 2 2
left_child=1 2 3 -1
right_child=-2 -3 -4 -5
leaf_value=-0.03480641946512273 0.027702825130491861 0.0071556655548673858 -0.035623665203263925 -0.03489476761885988
leaf_weight=1.275549113750458 6.8830843716859818 2.3882707059383392 3.0484038814902306 1.2780732922255991
leaf_count=21 37 7 35 20
internal_value=0.000684435 -0.02259 -0.0352713 -0.0348506
internal_weight=14.8734 7.9903 5.60203 2.55362
internal_count=120 83 76 41
is_linear=0
shrinkage=0.05


Tree=105
num_leaves=5
num_cat=0
split_feature=2 1 1 0
split_gain=5.06033 0.277935 0.0102377 5.65335e-06
threshold=1.8 3.0500000000000003 2.6500000000000008 6.1500000000000012
decision_type=2 2 2 2
left_child=-1 2 -2 -4
right_child=1 -3 3 -5
leaf_value=0.037112177736373285 -0.039917030697755151 -0.014336621904630057 -0.035262464605622497 -0.035124811412681235
leaf_weight=4.6583831533789635 1.8650256767868993 1.8736733458936212 1.5183864086866381 1.4660822823643682
leaf_count=38 19 22 20 21
internal_value=-0.00294016 -0.0306918 -0.0370109 -0.0351948
internal_weight=11.3816 6.72317 4.84949 2.98447
internal_count=120 82 60 41
is_linear=0
shrinkage=0.05


Tree=106
num_leaves=4
num_cat=0
split_feature=2 2 1
split_gain=1.77483 2.41271 0.717341
threshold=1.8 5.0500000000000007 2.8500000000000001
decision_type=2 2 2
left_child=-1 2 -2
right_child=1 -3 -4
leaf_value=-0.035824347328530418 0.010629913168077999 -0.025579408612300694 0.038595142471999092
leaf_weight=2.6426846049726018 5.4085641801357252 3.6162730902433387 3.9810050204396248
leaf_count=38 27 32 23
internal_value=0.00153148 0.00912189 0.0224867
internal_weight=15.6485 13.0058 9.38957
internal_count=120 82 50
is_linear=0
shrinkage=0.05


Tree=107
num_leaves=6
num_cat=0
split_feature=2 3 2 1 2
split_gain=3.44503 2.20781 0.0169715 0.000115721 5.24838e-06
threshold=4.9500000000000011 1.6500000000000001 4.4500000000000011 2.8500000000000001 1.4500000000000002
decision_type=2 2 2 2 2
left_child=1 2 3 -1 -5
right_child=-2 -3 -4 4 -6
leaf_value=-0.035337227366542233 0.027635349409593491 0.025117979200944874 -0.040977204666159922 -0.034711577582752708 -0.034850529665880585
leaf_weight=1.5046932101249693 6.4863845854997635 1.9140379428863523 1.6246639639139173 1.1430487073957922 1.6759920716285703
leaf_count=19 36 6 12 20 27
internal_value=0.000661947 -0.0215907 -0.0366203 -0.0349832 -0.0347942
internal_weight=14.3488 7.86244 5.9484 4.32373 2.81904
internal_count=120 84 78 66 47
is_linear=0
shrinkage=0.05


Tree=108
num_leaves=5
num_cat=0
split_feature=3 1 1 1
split_gain=4.74703 0.277647 0.0124215 4.88477e-05
threshold=0.45000000000000007 3.0500000000000003 2.5500000000000003 2.8500000000000001
decision_type=2 2 2 2
left_child=-1 2 -2 -4
right_child=1 -3 3 -5
leaf_value=0.036928663109103844 -0.040667669720265809 -0.013844349869182988 -0.035308205654910822 -0.034914090599406686
leaf_weight=4.4087628200650215 1.4825145080685613 1.8200575560331342 1.6178566999733448 1.5294624045491219
leaf_count=38 15 22 21 24
internal_value=-0.00305762 -0.0303899 -0.0368942 -0.0351167
internal_weight=10.8587 6.44989 4.62983 3.14732
internal_count=120 82 60 45
is_linear=0
shrinkage=0.05


Tree=109
num_leaves=4
num_cat=0
split_feature=1 2 1
split_gain=1.68164 1.67552 0.582213
threshold=3.2500000000000004 5.0500000000000007 2.8500000000000001
decision_type=2 2 2
left_child=1 2 -1
right_child=-2 -3 -4
leaf_value=0.0094466817552263035 -0.03260136546184296 -0.023032494235283096 0.034855012367810356
leaf_weight=5.3490202054381353 2.9147523976862439 2.9660486057400695 3.8973088897764683
leaf_count=28 36 25 31
internal_value=0.00152249 0.00966689 0.0201562
internal_weight=15.1271 12.2124 9.24633
internal_count=120 84 59
is_linear=0
shrinkage=0.05


Tree=110
num_leaves=6
num_cat=0
split_feature=3 2 0 2 2
split_gain=3.18315 2.0992 0.0151504 0.000167928 1.65264e-06
threshold=1.6500000000000001 4.9500000000000011 6.1500000000000012 3.1500000000000004 1.4500000000000002
decision_type=2 2 2 2 2
left_child=1 2 3 4 -1
right_child=-2 -3 -4 -5 -6
leaf_value=-0.034625767203051015 0.026314543036533123 0.026589695502609142 -0.040912157843415252 -0.035301685851881322 -0.034711053863156253
leaf_weight=1.130726356059313 6.4744369387626648 1.7221289873123167 1.4326503202319143 1.9434969276189802 1.1413699463009832
leaf_count=21 37 5 12 25 20
internal_value=0.000734628 -0.0217358 -0.0364701 -0.0349605 -0.0346686
internal_weight=13.8448 7.37037 5.64824 4.21559 2.2721
internal_count=120 83 78 66 41
is_linear=0
shrinkage=0.05


Tree=111
num_leaves=5
num_cat=0
split_feature=3 3 2 1
split_gain=4.50339 0.15751 0.00993045 5.51689e-05
threshold=1.0500000000000003 0.25000000000000006 4.4500000000000011 2.8500000000000001
decision_type=2 2 2 2
left_child=1 -1 -2 -4
right_child=2 -3 3 -5
leaf_value=0.036476035928398785 -0.03985274242400149 0.018855272217038841 -0.035294743327314748 -0.034890017517887305
leaf_weight=3.1363477259874344 1.525938782840967 2.1292043328285217 1.3406621031463148 2.2637376748025417
leaf_count=29 19 18 18 36
internal_value=-0.00313246 0.0293508 -0.0364719 -0.0350406
internal_weight=10.3959 5.26555 5.13034 3.6044
internal_count=120 47 73 54
is_linear=0
shrinkage=0.05


Tree=112
num_leaves=4
num_cat=0
split_feature=3 3 2
split_gain=1.58793 2.02167 0.27378
threshold=0.45000000000000007 1.6500000000000001 4.5500000000000007
decision_type=2 2 2
left_child=-1 2 -2
right_child=1 -3 -4
leaf_value=-0.035647926926944962 0.031853522049014704 -0.017934696724861223 0.012701126006176023
leaf_weight=2.4035655036568651 4.6752020791172963 4.4864373728632927 3.1052943095564842
leaf_count=38 32 37 13
internal_value=0.00151442 0.00879596 0.0242096
internal_weight=14.6705 12.2669 7.7805
internal_count=120 82 45
is_linear=0
shrinkage=0.05


Tree=113
num_leaves=6
num_cat=0
split_feature=3 2 0 2 2
split_gain=2.97689 1.96903 0.0133274 0.000156985 1.73843e-06
threshold=1.6500000000000001 4.9500000000000011 6.1500000000000012 3.1500000000000004 1.4500000000000002
decision_type=2 2 2 2 2
left_child=1 2 3 4 -1
right_child=-2 -3 -4 -5 -6
leaf_value=-0.034538443696131051 0.025769641315406974 0.025397596338159051 -0.040588019117110546 -0.035211830720170798 -0.03462860990053445
leaf_weight=1.059654623270035 6.2999568730592728 1.7006650269031522 1.3713089004158971 1.8623734414577482 1.078816909343004
leaf_count=21 37 5 12 25 20
internal_value=0.000773765 -0.0214908 -0.0363342 -0.0348762 -0.0345839
internal_weight=13.3728 7.07282 5.37215 4.00084 2.13847
internal_count=120 83 78 66 41
is_linear=0
shrinkage=0.05


Tree=114
num_leaves=5
num_cat=0
split_feature=2 0 1 2
split_gain=4.23303 0.0800202 7.84957e-05 5.50264e-06
threshold=3.1500000000000004 5.0500000000000007 2.8500000000000001 5.3500000000000005
decision_type=2 2 2 2
left_child=1 -1 -2 -4
right_child=2 -3 3 -5
leaf_value=0.036896013621843332 -0.035172090115287616 0.024010453807144158 -0.034843254758708496 -0.034696031743866776
leaf_weight=2.3861603811383247 2.5101683661341667 2.4337092712521553 1.4673407375812533 1.1184752248227594
leaf_count=22 35 19 24 20
internal_value=-0.00320166 0.0303897 -0.0349729 -0.0347796
internal_weight=9.91585 4.81987 5.09598 2.58582
internal_count=120 41 79 44
is_linear=0
shrinkage=0.05


Tree=115
num_leaves=4
num_cat=0
split_feature=1 2 1
split_gain=1.50804 1.45203 0.622914
threshold=3.2500000000000004 5.0500000000000007 2.8500000000000001
decision_type=2 2 2
left_child=1 2 -1
right_child=-2 -3 -4
leaf_value=0.008224272458052866 -0.03228121643797624 -0.021847364096058964 0.035375135859437731
leaf_weight=5.0810446031391603 2.6712999790906915 2.8069349825382224 3.6158752031624317
leaf_count=28 36 25 31
internal_value=0.0015621 0.00942083 0.0195127
internal_weight=14.1752 11.5039 8.69692
internal_count=120 84 59
is_linear=0
shrinkage=0.05


Tree=116
num_leaves=5
num_cat=0
split_feature=2 1 1 1
split_gain=2.80532 2.11819 0.080787 0.108694
threshold=5.1500000000000012 2.8500000000000001 3.0500000000000003 3.3500000000000001
decision_type=2 2 2 2
left_child=1 -1 -3 -4
right_child=-2 2 3 -5
leaf_value=0.0088044081194058512 0.03847839243078207 -0.030485481838265216 -0.05475196491960347 -0.034572110856142424
leaf_weight=4.9335008785128576 3.5636944696307191 1.7190436162054537 1.2984575591981413 1.3727441877126692
leaf_count=33 26 20 14 27
internal_value=0.000745233 -0.013677 -0.0389403 -0.0443814
internal_weight=12.8874 9.32375 4.39025 2.6712
internal_count=120 94 61 41
is_linear=0
shrinkage=0.05


Tree=117
num_leaves=5
num_cat=0
split_feature=2 1 1 1
split_gain=4.02786 0.252989 0.0106432 4.07349e-05
threshold=1.8 3.0500000000000003 2.5500000000000003 2.8500000000000001
decision_type=2 2 2 2
left_child=-1 2 -2 -4
right_child=1 -3 3 -5
leaf_value=0.036432063846889878 -0.040291859715727983 -0.013236319536845762 -0.035045392544758212 -0.034657387355139381
leaf_weight=3.8136573284864426 1.3513264395296571 1.6080958507955072 1.4160914793610575 1.2950843311846254
leaf_count=38 15 22 21 24
internal_value=-0.00330074 -0.0300223 -0.0366669 -0.03486
internal_weight=9.48426 5.6706 4.0625 2.71118
internal_count=120 82 60 45
is_linear=0
shrinkage=0.05


Tree=118
num_leaves=5
num_cat=0
split_feature=1 3 2 1
split_gain=1.40331 1.35456 0.292513 0.189279
threshold=3.2500000000000004 1.6500000000000001 4.6500000000000012 2.7500000000000004
decision_type=2 2 2 2
left_child=1 2 3 -1
right_child=-2 -3 -4 -5
leaf_value=0.038659937753613122 -0.031930883613411905 -0.014921772005521064 0.007953388198134145 0.018950005942107918
leaf_weight=2.4401116222143155 2.5458291321992883 3.8462010696530342 2.5625998228788376 2.4321779236197472
leaf_count=17 36 30 10 27
internal_value=0.00159999 0.00916698 0.0216285 0.028821
internal_weight=13.8269 11.2811 7.43489 4.87229
internal_count=120 84 54 44
is_linear=0
shrinkage=0.05


Tree=119
num_leaves=5
num_cat=0
split_feature=2 1 1 1
split_gain=2.60723 1.98463 0.0886891 0.0999561
threshold=5.1500000000000012 2.8500000000000001 3.0500000000000003 3.3500000000000001
decision_type=2 2 2 2
left_child=1 -1 -3 -4
right_child=-2 2 3 -5
leaf_value=0.0084481716027901138 0.038194518548065874 -0.029376839837144748 -0.054336634373951434 -0.034510610498302473
leaf_weight=4.9105509370565397 3.3878711611032495 1.6772440262138841 1.2418136075139048 1.3025887496769426
leaf_count=33 26 20 14 27
internal_value=0.000733387 -0.013164 -0.0383029 -0.0441868
internal_weight=12.5201 9.1322 4.22165 2.5444
internal_count=120 94 61 41
is_linear=0
shrinkage=0.05


Tree=120
num_leaves=5
num_cat=0
split_feature=3 3 2 2
split_gain=3.81937 0.137034 0.00816184 4.82706e-05
threshold=1.0500000000000003 0.25000000000000006 4.4500000000000011 5.3500000000000005
decision_type=2 2 2 2
left_child=1 -1 -2 -4
right_child=2 -3 3 -5
leaf_value=0.035986935043422819 -0.039479454591356593 0.01843737999337762 -0.034962148111140394 -0.034555498118700595
leaf_weight=2.689067468047142 1.3355548307299612 1.8970576003193853 1.9838041029870512 1.1544304788112638
leaf_count=29 19 18 31 23
internal_value=-0.00333655 0.0287275 -0.0362058 -0.0348126
internal_weight=9.05991 4.58613 4.47379 3.13823
internal_count=120 47 73 54
is_linear=0
shrinkage=0.05


Tree=121
num_leaves=5
num_cat=0
split_feature=1 3 2 1
split_gain=1.30535 1.26451 0.281642 0.182874
threshold=3.2500000000000004 1.6500000000000001 4.6500000000000012 2.7500000000000004
decision_type=2 2 2 2
left_child=1 2 3 -1
right_child=-2 -3 -4 -5
leaf_value=0.038245153590642733 -0.031591096916693921 -0.014527430078584501 0.0077057305214295437 0.018532933099886909
leaf_weight=2.35107898339629 2.4284087046980867 3.7821248397231102 2.5342881232500076 2.3552366383373737
leaf_count=17 36 30 10 27
internal_value=0.00159352 0.0089044 0.021144 0.0283803
internal_weight=13.4511 11.0227 7.2406 4.70632
internal_count=120 84 54 44
is_linear=0
shrinkage=0.05


Tree=122
num_leaves=5
num_cat=0
split_feature=2 1 1 2
split_gain=2.46003 1.90446 0.0914336 0.100931
threshold=5.1500000000000012 2.8500000000000001 3.0500000000000003 1.6500000000000001
decision_type=2 2 2 2
left_child=1 -1 -3 -4
right_child=-2 2 3 -5
leaf_value=0.0083055065009584646 0.038007280338683926 -0.028980417201299697 -0.034350819893631944 -0.054767493860294392
leaf_weight=4.8505239933729154 3.24371112138033 1.6389172524213789 1.2458300814032557 1.177427180111408
leaf_count=33 26 20 29 12
internal_value=0.000723418 -0.0128458 -0.0381019 -0.044271
internal_weight=12.1564 8.9127 4.06217 2.42326
internal_count=120 94 61 41
is_linear=0
shrinkage=0.05


Tree=123
num_leaves=5
num_cat=0
split_feature=3 3 0 2
split_gain=3.59694 0.136382 0.00839768 3.06686e-05
threshold=1.0500000000000003 0.25000000000000006 5.7500000000000009 5.3500000000000005
decision_type=2 2 2 2
left_child=1 -1 -2 -4
right_child=2 -3 3 -5
leaf_value=0.035835654749198115 -0.039640570271515907 0.017985257214975171 -0.034804558495457459 -0.034474121068949641
leaf_weight=2.5586656481027603 1.185366492718458 1.8392058983445165 2.0001895837485795 1.0820644013583658
leaf_count=29 16 18 34 23
internal_value=-0.00336247 0.0283706 -0.036064 -0.0346886
internal_weight=8.66549 4.39787 4.26762 3.08225
internal_count=120 47 73 57
is_linear=0
shrinkage=0.05


Tree=124
num_leaves=5
num_cat=0
split_feature=1 3 2 1
split_gain=1.21887 1.1854 0.273199 0.178194
threshold=3.2500000000000004 1.6500000000000001 4.6500000000000012 2.7500000000000004
decision_type=2 2 2 2
left_child=1 2 3 -1
right_child=-2 -3 -4 -5
leaf_value=0.037852278207141599 -0.031299278180018306 -0.014152719964083172 0.0074404044171442855 0.018093304199482345
leaf_weight=2.2869321443140489 2.3146247677505025 3.7214626036584377 2.5036972090601921 2.2772763818502426
leaf_count=17 36 30 10 27
internal_value=0.00162414 0.00868714 0.020713 0.0279937
internal_weight=13.104 10.7894 7.06791 4.56421
internal_count=120 84 54 44
is_linear=0
shrinkage=0.05


Tree=125
num_leaves=5
num_cat=0
split_feature=2 1 1 2
split_gain=2.31687 1.82985 0.0942052 0.0964098
threshold=5.1500000000000012 2.8500000000000001 3.0500000000000003 1.6500000000000001
decision_type=2 2 2 2
left_child=1 -1 -3 -4
right_child=-2 2 3 -5
leaf_value=0.0081793661663732854 0.037825736864722438 -0.028581114993545376 -0.034287894968895442 -0.05470686601871403
leaf_weight=4.7915049940347654 3.0946685448288926 1.602966479957104 1.172757148742676 1.1400548182427881
leaf_count=33 26 20 29 12
internal_value=0.000665553 -0.0125416 -0.0378966 -0.044353
internal_weight=11.802 8.70728 3.91578 2.31281
internal_count=120 94 61 41
is_linear=0
shrinkage=0.05


Tree=126
num_leaves=5
num_cat=0
split_feature=2 1 1 1
split_gain=3.40894 0.221393 0.00654636 2.48731e-05
threshold=1.8 3.0500000000000003 2.5500000000000003 2.8500000000000001
decision_type=2 2 2 2
left_child=-1 2 -2 -4
right_child=1 -3 3 -5
leaf_value=0.035975618463030677 -0.039182538221368461 -0.012891531986539435 -0.034806525934959663 -0.034480642797706212
leaf_weight=3.3064713776111603 1.2066935300827029 1.4300204440951345 1.2254027873277666 1.1213173083961008
leaf_count=38 15 22 21 24
internal_value=-0.00338724 -0.0295042 -0.0361897 -0.0346508
internal_weight=8.28991 4.98343 3.55341 2.34672
internal_count=120 82 60 45
is_linear=0
shrinkage=0.05


Tree=127
num_leaves=5
num_cat=0
split_feature=1 3 2 1
split_gain=1.13838 1.11287 0.264864 0.173517
threshold=3.2500000000000004 1.6500000000000001 4.6500000000000012 2.7500000000000004
decision_type=2 2 2 2
left_child=1 2 3 -1
right_child=-2 -3 -4 -5
leaf_value=0.03747054554325454 -0.031009598083040376 -0.013796260342350597 0.0071939701623505541 0.017674726444238457
leaf_weight=2.2246989011764509 2.2065656781196603 3.6636539623141289 2.4734759926795959 2.2032711282372475
leaf_count=17 36 30 10 27
internal_value=0.00165425 0.00847624 0.0202997 0.0276205
internal_weight=12.7717 10.5651 6.90145 4.42797
internal_count=120 84 54 44
is_linear=0
shrinkage=0.05


Tree=128
num_leaves=5
num_cat=0
split_feature=2 1 1 1
split_gain=2.18345 1.75756 0.0969587 0.0887871
threshold=5.1500000000000012 2.8500000000000001 3.0500000000000003 3.3500000000000001
decision_type=2 2 2 2
left_child=1 -1 -3 -4
right_child=-2 2 3 -5
leaf_value=0.0080519491635687307 0.037655727187291772 -0.028176954426857848 -0.054380685035169796 -0.034329194551429902
leaf_weight=4.7334956079721433 2.9524995833635339 1.5691918805241587 1.1127184070646765 1.0957041047513483
leaf_count=33 26 20 14 27
internal_value=0.000606468 -0.0122459 -0.0376799 -0.0444322
internal_weight=11.4636 8.51111 3.77761 2.20842
internal_count=120 94 61 41
is_linear=0
shrinkage=0.05


Tree=129
num_leaves=5
num_cat=0
split_feature=3 1 0 2
split_gain=3.23076 0.142712 0.0060309 3.41466e-05
threshold=1.0500000000000003 3.3500000000000001 5.7500000000000009 5.3500000000000005
decision_type=2 2 2 2
left_child=1 -1 -2 -4
right_child=2 -3 3 -5
leaf_value=0.017334863933596369 -0.038970139441320557 0.036344665446336438 -0.034705632187354639 -0.034338592412018941
leaf_weight=1.7486096546053884 1.082645293325186 2.2676320299506187 1.8632911816239359 0.96021728217601765
leaf_count=21 16 26 34 23
internal_value=-0.00342091 0.0280681 -0.0357974 -0.0345808
internal_weight=7.9224 4.01624 3.90615 2.82351
internal_count=120 47 73 57
is_linear=0
shrinkage=0.05


Tree=130
num_leaves=4
num_cat=0
split_feature=2 3 2
split_gain=1.19394 1.39613 0.250593
threshold=1.8 1.6500000000000001 4.5500000000000007
decision_type=2 2 2
left_child=-1 2 -2
right_child=1 -3 -4
leaf_value=-0.035146319253498287 0.030620695825682429 -0.015315186114891272 0.010928748940637127
leaf_weight=1.8730555772781379 3.7936821207404119 3.9583742059767246 2.8139604702591896
leaf_count=38 32 37 13
internal_value=0.00164514 0.00816722 0.0222346
internal_weight=12.4391 10.566 6.60764
internal_count=120 82 45
is_linear=0
shrinkage=0.05


Tree=131
num_leaves=5
num_cat=0
split_feature=2 1 1 0
split_gain=2.06324 1.68604 0.0996011 0.10781
threshold=5.1500000000000012 2.8500000000000001 3.0500000000000003 5.6500000000000012
decision_type=2 2 2 2
left_child=1 -1 -3 -4
right_child=-2 2 3 -5
leaf_value=0.0079229117293716858 0.037499826446072131 -0.027767355992987287 -0.034176269459897678 -0.056894450023115328
leaf_weight=4.6770619675517064 2.82690653204918 1.5373921468853953 1.148488771170378 0.95767295733094204
leaf_count=33 26 20 32 9
internal_value=0.000595451 -0.0119427 -0.0374433 -0.0445062
internal_weight=11.1475 8.32062 3.64355 2.10616
internal_count=120 94 61 41
is_linear=0
shrinkage=0.05


Tree=132
num_leaves=5
num_cat=0
split_feature=3 1 1 1
split_gain=3.05269 0.265524 0.00496523 1.82413e-05
threshold=0.45000000000000007 3.1500000000000008 2.5500000000000003 2.8500000000000001
decision_type=2 2 2 2
left_child=-1 2 -2 -4
right_child=1 -3 3 -5
leaf_value=0.035758142234715844 -0.038558648430335331 -0.0071444648884997439 -0.03466917898227178 -0.034392927290383124
leaf_weight=2.9921877458691597 1.114392299205065 1.0496083721518514 1.1129775010049345 1.2903838790953157
leaf_count=38 15 16 21 30
internal_value=-0.00349748 -0.0292148 -0.0358 -0.0345209
internal_weight=7.55955 4.56736 3.51775 2.40336
internal_count=120 82 66 51
is_linear=0
shrinkage=0.05


Tree=133
num_leaves=5
num_cat=0
split_feature=1 3 2 1
split_gain=1.0089 0.984412 0.257575 0.159288
threshold=3.2500000000000004 1.6500000000000001 4.6500000000000012 2.7500000000000004
decision_type=2 2 2 2
left_child=1 2 3 -1
right_child=-2 -3 -4 -5
leaf_value=0.036895477616620237 -0.030692566953935116 -0.013084363199992536 0.0066455949818694949 0.017252461879790619
leaf_weight=2.0908117070794088 2.0082622598856696 3.5511840060353279 2.4162902161478996 2.0381139889359474
leaf_count=17 36 30 10 27
internal_value=0.00167357 0.00811147 0.0196115 0.0271993
internal_weight=12.1047 10.0964 6.54522 4.12893
internal_count=120 84 54 44
is_linear=0
shrinkage=0.05


Tree=134
num_leaves=5
num_cat=0
split_feature=3 2 1 0
split_gain=1.95003 0.892624 0.000141623 1.82735e-06
threshold=1.8500000000000003 4.4500000000000011 2.8500000000000001 5.0500000000000007
decision_type=2 2 2 2
left_child=1 2 -1 -4
right_child=-2 -3 3 -5
leaf_value=-0.034871109657471172 0.037011537243172375 0.00037953925668292749 -0.034091499012229493 -0.034198670051014915
leaf_weight=1.1886294856667503 2.7422072738409051 5.2710354998707771 0.68269739300012566 0.95294508337974548
leaf_count=19 25 29 21 26
internal_value=0.000570372 -0.0117737 -0.0344558 -0.0341539
internal_weight=10.8375 8.09531 2.82427 1.63564
internal_count=120 95 66 47
is_linear=0
shrinkage=0.05


Tree=135
num_leaves=5
num_cat=0
split_feature=2 0 2 3
split_gain=2.89518 0.0719118 3.93369e-05 1.80607e-05
threshold=3.1500000000000004 5.0500000000000007 5.1500000000000012 1.4500000000000002
decision_type=2 2 2 2
left_child=1 -1 3 -2
right_child=2 -3 -4 -5
leaf_value=0.035894862708630321 -0.03448998627433715 0.021634025436216245 -0.034256144585866836 -0.034749238352266253
leaf_weight=1.7773929163813593 1.3003390133380897 1.7586899697780607 0.9963422343134879 1.389773655682802
leaf_count=22 28 19 26 25
internal_value=-0.00352041 0.0288022 -0.0345245 -0.0346239
internal_weight=7.22254 3.53608 3.68645 2.69011
internal_count=120 41 79 53
is_linear=0
shrinkage=0.05


Tree=136
num_leaves=5
num_cat=0
split_feature=2 3 2 3
split_gain=0.77498 1.27461 0.372789 0.125566
threshold=3.1500000000000004 1.6500000000000001 4.5500000000000007 0.25000000000000006
decision_type=2 2 2 2
left_child=3 2 -2 -1
right_child=1 -3 -4 -5
leaf_value=-0.034770285568918313 0.035972404043088942 -0.014273334611378566 0.010179656343223882 -0.011723041093178914
leaf_weight=1.2509947121143352 2.8412664458155614 3.7942011542618275 2.7634312212467194 1.1201543696224687
leaf_count=29 29 37 13 12
internal_value=0.00166125 0.00810542 0.0232551 -0.0238825
internal_weight=11.77 9.3989 5.6047 2.37115
internal_count=120 79 42 41
is_linear=0
shrinkage=0.05


Tree=137
num_leaves=5
num_cat=0
split_feature=2 1 1 0
split_gain=1.87831 1.61141 0.100992 0.103038
threshold=5.1500000000000012 2.8500000000000001 3.0500000000000003 5.6500000000000012
decision_type=2 2 2 2
left_child=1 -1 -3 -4
right_child=-2 2 3 -5
leaf_value=0.0080364993477060349 0.037331648016675677 -0.027664996661675902 -0.034074573115743932 -0.057187817812485844
leaf_weight=4.5073088742792606 2.6109297275543213 1.4716369584202769 1.0157293733209369 0.9179690796881913
leaf_count=33 26 20 32 9
internal_value=0.000558106 -0.011576 -0.0375352 -0.0450469
internal_weight=10.5236 7.91264 3.40534 1.9337
internal_count=120 94 61 41
is_linear=0
shrinkage=0.05


Tree=138
num_leaves=5
num_cat=0
split_feature=3 1 0 2
split_gain=2.75999 0.119088 0.00502308 3.24746e-05
threshold=1.0500000000000003 3.3500000000000001 5.7500000000000009 5.1500000000000012
decision_type=2 2 2 2
left_child=1 -1 -2 -4
right_child=2 -3 3 -5
leaf_value=0.01731205192174573 -0.038704214171392901 0.03595795510056423 -0.034569471465769448 -0.034194748813289703
leaf_weight=1.5338817648589613 0.95305598527193103 1.9385983943939207 1.5203943736851218 0.93297553621232499
leaf_count=21 16 26 31 26
internal_value=-0.0036469 0.0277216 -0.0356237 -0.034427
internal_weight=6.87891 3.47248 3.40643 2.45337
internal_count=120 47 73 57
is_linear=0
shrinkage=0.05


Tree=139
num_leaves=5
num_cat=0
split_feature=2 3 2 3
split_gain=0.700993 1.19199 0.366705 0.130354
threshold=3.1500000000000004 1.6500000000000001 4.5500000000000007 0.25000000000000006
decision_type=2 2 2 2
left_child=3 2 -2 -1
right_child=1 -3 -4 -5
leaf_value=-0.034680312079895768 0.035832889630712822 -0.013906684990463124 0.009855586602194143 -0.010748360766640928
leaf_weight=1.1783726941794168 2.7084947824478132 3.7285032123327255 2.7256771996617317 1.1002802327275274
leaf_count=29 29 37 13 12
internal_value=0.00169322 0.00786509 0.0228032 -0.0231244
internal_weight=11.4413 9.16268 5.43417 2.27865
internal_count=120 79 42 41
is_linear=0
shrinkage=0.05


Tree=140
num_leaves=5
num_cat=0
split_feature=2 1 1 2
split_gain=1.77299 1.54621 0.10333 0.111433
threshold=5.1500000000000012 2.8500000000000001 3.0500000000000003 4.2500000000000009
decision_type=2 2 2 2
left_child=1 -1 -3 -4
right_child=-2 2 3 -5
leaf_value=0.0079340269301253676 0.037205066154929141 -0.027236889927672477 -0.034031252833064678 -0.058728590070195402
leaf_weight=4.453964289277792 2.4956678673624992 1.4385891370475294 1.0180868804454801 0.82831670716404904
leaf_count=33 26 20 34 7
internal_value=0.000558303 -0.0112596 -0.0372833 -0.0451107
internal_weight=10.2346 7.73896 3.28499 1.8464
internal_count=120 94 61 41
is_linear=0
shrinkage=0.05


Tree=141
num_leaves=5
num_cat=0
split_feature=3 1 0 2
split_gain=2.60163 0.117027 0.00482772 3.2553e-05
threshold=1.0500000000000003 3.3500000000000001 5.7500000000000009 5.1500000000000012
decision_type=2 2 2 2
left_child=1 -1 -2 -4
right_child=2 -3 3 -5
leaf_value=0.016935060769907327 -0.038669210372880597 0.035820292184432029 -0.034523365585231156 -0.034137509279705262
leaf_weight=1.4839732162654402 0.9118935372680429 1.8342636562883852 1.460632521659136 0.87350645102560509
leaf_count=21 16 26 31 26
internal_value=-0.0037586 0.0273745 -0.0355842 -0.034379
internal_weight=6.56427 3.31824 3.24603 2.33414
internal_count=120 47 73 57
is_linear=0
shrinkage=0.05


Tree=142
num_leaves=5
num_cat=0
split_feature=2 3 2 3
split_gain=0.648273 1.12026 0.362088 0.128759
threshold=3.1500000000000004 1.6500000000000001 4.5500000000000007 0.25000000000000006
decision_type=2 2 2 2
left_child=3 2 -2 -1
right_child=1 -3 -4 -5
leaf_value=-0.034600987315776328 0.035724745694587813 -0.013561336092281702 0.0095466774170958925 -0.010328330602679445
leaf_weight=1.1137243919074546 2.5967998467385751 3.6660423055291176 2.6885057017207146 1.0725095961242912
leaf_count=29 29 37 13 12
internal_value=0.00171551 0.00767704 0.0224086 -0.0226935
internal_weight=11.1376 8.95135 5.28531 2.18623
internal_count=120 79 42 41
is_linear=0
shrinkage=0.05


Tree=143
num_leaves=5
num_cat=0
split_feature=2 1 1 0
split_gain=1.67439 1.48212 0.10547 0.0924057
threshold=5.1500000000000012 2.8500000000000001 3.0500000000000003 5.6500000000000012
decision_type=2 2 2 2
left_child=1 -1 -3 -4
right_child=-2 2 3 -5
leaf_value=0.0078252485249227146 0.037085502959700575 -0.026818452885221635 -0.033988449373077247 -0.056901387083183257
leaf_weight=4.4022264927625656 2.3858455047011375 1.410078449174762 0.90183415450155713 0.8592928983271122
leaf_count=33 26 20 32 9
internal_value=0.000558853 -0.0109481 -0.037009 -0.0451682
internal_weight=9.95928 7.57343 3.17121 1.76113
internal_count=120 94 61 41
is_linear=0
shrinkage=0.05


Tree=144
num_leaves=5
num_cat=0
split_feature=3 1 0 2
split_gain=2.45272 0.114902 0.00462963 3.24476e-05
threshold=1.0500000000000003 3.3500000000000001 5.7500000000000009 5.1500000000000012
decision_type=2 2 2 2
left_child=1 -1 -2 -4
right_child=2 -3 3 -5
leaf_value=0.016569321082153126 -0.038632303919547098 0.035691056530582653 -0.03448036616784389 -0.034084133350744436
leaf_weight=1.4361393563449385 0.87282858043909106 1.7343862131237981 1.403483431786299 0.81771310977637757
leaf_count=21 16 26 31 26
internal_value=-0.00387659 0.0270296 -0.0355469 -0.0343345
internal_weight=6.26455 3.17053 3.09403 2.2212
internal_count=120 47 73 57
is_linear=0
shrinkage=0.05


Tree=145
num_leaves=5
num_cat=0
split_feature=2 3 2 3
split_gain=0.599663 1.05396 0.357084 0.127023
threshold=3.1500000000000004 1.6500000000000001 4.5500000000000007 0.25000000000000006
decision_type=2 2 2 2
left_child=3 2 -2 -1
right_child=1 -3 -4 -5
leaf_value=-0.03452644707866049 0.03562461063580466 -0.013227723203065672 0.0092621505839393103 -0.0099226209620211277
leaf_weight=1.0526757016778003 2.4905243366956693 3.6062244176864624 2.6526440680027008 1.0456877369433639
leaf_count=29 29 37 13 12
internal_value=0.00173952 0.00749664 0.0220279 -0.0222655
internal_weight=10.8478 8.74939 5.14317 2.09836
internal_count=120 79 42 41
is_linear=0
shrinkage=0.05


Tree=146
num_leaves=5
num_cat=0
split_feature=2 1 1 2
split_gain=1.58216 1.42085 0.107716 0.0987181
threshold=5.1500000000000012 2.8500000000000001 3.0500000000000003 4.2500000000000009
decision_type=2 2 2 2
left_child=1 -1 -3 -4
right_child=-2 2 3 -5
leaf_value=0.0077198008249922834 0.036972358962195639 -0.02639782780977401 -0.033946581636497448 -0.058247446169128171
leaf_weight=4.3515825495123863 2.2812117710709572 1.3833141103386881 0.89942748658359029 0.7806511614471674
leaf_count=33 26 20 34 7
internal_value=0.000558489 -0.0106442 -0.0367305 -0.045238
internal_weight=9.69619 7.41498 3.06339 1.68008
internal_count=120 94 61 41
is_linear=0
shrinkage=0.05


Tree=147
num_leaves=5
num_cat=0
split_feature=2 1 3 1
split_gain=2.32995 0.224513 0.00483996 9.43582e-06
threshold=1.8 3.1500000000000008 1.2500000000000002 2.8500000000000001
decision_type=2 2 2 2
left_child=-1 2 -2 -4
right_child=1 -3 3 -5
leaf_value=0.035231009038742635 -0.038884168888032346 -0.0062661263962687039 -0.034404739561476154 -0.03418784045200296
leaf_weight=2.3188533708453178 0.80708250589668828 0.84801345318555821 1.0326823499053719 0.97468509525060643
leaf_count=38 12 16 25 29
internal_value=-0.00398783 -0.0288189 -0.0356142 -0.0342994
internal_weight=5.98132 3.66246 2.81445 2.00737
internal_count=120 82 66 54
is_linear=0
shrinkage=0.05


Tree=148
num_leaves=5
num_cat=0
split_feature=2 3 2 2
split_gain=0.554495 0.992827 0.351905 0.110131
threshold=3.1500000000000004 1.6500000000000001 4.5500000000000007 1.5500000000000003
decision_type=2 2 2 2
left_child=3 2 -2 -1
right_child=1 -3 -4 -5
leaf_value=-0.034089730756039653 0.035531380340481832 -0.012913885408591608 0.0089916579088288699 -0.01068428948878096
leaf_weight=0.96032680571079376 2.3890999145805818 3.549189567565918 2.6174285933375359 1.05443549901247
leaf_count=31 29 37 13 10
internal_value=0.0017583 0.00731548 0.0216563 -0.0218404
internal_weight=10.5705 8.55572 5.00653 2.01476
internal_count=120 79 42 41
is_linear=0
shrinkage=0.05


Tree=149
num_leaves=5
num_cat=0
split_feature=3 2 1 0
split_gain=1.5072 0.730347 0.000109756 5.37194e-07
threshold=1.8500000000000003 4.4500000000000011 2.8500000000000001 5.0500000000000007
decision_type=2 2 2 2
left_child=1 2 -1 -4
right_child=-2 -3 3 -5
leaf_value=-0.034638405537249922 0.036440678854897129 0.00012402762731814391 -0.033897154634744769 -0.033964481395452321
leaf_weight=1.0262246578931811 2.2342251613736153 4.9710892215371132 0.51261773891746976 0.70201889239251614
leaf_count=19 25 29 21 26
internal_value=0.000557523 -0.0105589 -0.0342577 -0.0339361
internal_weight=9.44618 7.21195 2.24086 1.21464
internal_count=120 95 66 47
is_linear=0
shrinkage=0.05


Tree=150
num_leaves=5
num_cat=0
split_feature=3 1 1 2
split_gain=2.20679 0.105483 0.004864 2.54256e-05
threshold=1.0500000000000003 3.3500000000000001 2.6500000000000008 5.1500000000000012
decision_type=2 2 2 2
left_child=1 -1 -2 -4
right_child=2 -3 3 -5
leaf_value=0.016284650638749155 -0.038938722760176514 0.035522164398151264 -0.034358818602648472 -0.033987600111662443
leaf_weight=1.3095609433948996 0.74734206311404738 1.5630679465830324 1.3877227492630484 0.69092154316604126
leaf_count=21 13 26 35 25
internal_value=-0.00410881 0.0267523 -0.0354792 -0.0342354
internal_weight=5.69862 2.87263 2.82599 2.07864
internal_count=120 47 73 60
is_linear=0
shrinkage=0.05


Tree=151
num_leaves=5
num_cat=0
split_feature=2 0 0 3
split_gain=0.524504 1.0849 0.432721 0.302968
threshold=5.0500000000000007 6.2500000000000009 5.0500000000000007 1.4500000000000002
decision_type=2 2 2 2
left_child=1 2 -1 -4
right_child=-2 -3 3 -5
leaf_value=-0.025257684622929544 -0.018665666386446161 0.041320761634094927 0.016823185291410688 -0.0094981588399354853
leaf_weight=1.534806018695235 2.4097576811909676 1.8635239601135252 2.5459388829767704 1.9160106405615804
leaf_count=26 32 14 38 10
internal_value=0.00174187 0.00799829 -0.00235684 0.00552051
internal_weight=10.27 7.86028 5.99676 4.46195
internal_count=120 88 74 48
is_linear=0
shrinkage=0.05


Tree=152
num_leaves=4
num_cat=0
split_feature=2 1 1
split_gain=1.44683 1.36043 0.10907
threshold=5.1500000000000012 2.8500000000000001 3.1500000000000008
decision_type=2 2 2
left_child=1 -1 -3
right_child=-2 2 -4
leaf_value=0.007886838548848852 0.036874262134309589 -0.028275888286507008 -0.047946833123260722
leaf_weight=4.1983636021614075 2.1159227974712849 1.6318720988929274 1.2402659598737953
leaf_count=33 26 25 36
internal_value=0.00060148 -0.0102535 -0.0367703
internal_weight=9.18642 7.0705 2.87214
internal_count=120 94 61
is_linear=0
shrinkage=0.05


Tree=153
num_leaves=5
num_cat=0
split_feature=2 1 1 1
split_gain=2.08671 0.217284 0.00333233 5.82281e-06
threshold=1.8 3.1500000000000008 2.5500000000000003 2.8500000000000001
decision_type=2 2 2 2
left_child=-1 2 -2 -4
right_child=1 -3 3 -5
leaf_value=0.035071465831096126 -0.037982120843975058 -0.0055917027236491723 -0.034297316632754919 -0.03411176047322536
leaf_weight=2.0930842123925686 0.88504011556506235 0.79424063861370076 0.79256650432944276 0.90617972798645496
leaf_count=38 15 16 21 30
internal_value=-0.00415704 -0.0284637 -0.0354944 -0.0341983
internal_weight=5.47111 3.37803 2.58379 1.69875
internal_count=120 82 66 51
is_linear=0
shrinkage=0.05


Tree=154
num_leaves=5
num_cat=0
split_feature=2 3 2 3
split_gain=0.498017 0.878734 0.44454 0.118096
